{"learner":{"attributes":{"scikit_learn":"{\"_estimator_type\": \"classifier\"}"},"feature_names":["DRAW_SIZE","MATCH_NUM","PLAYER1_SEED","PLAYER1_HT","PLAYER1_AGE","PLAYER2_SEED","PLAYER2_HT","PLAYER2_AGE","BEST_OF","PLAYER1_RANK","PLAYER1_RANK_POINTS","PLAYER2_RANK","PLAYER2_RANK_POINTS","YEAR","ATP_POINT_DIFF","ATP_RANK_DIFF","AGE_DIFF","HEIGHT_DIFF","RANK_RATIO","H2H_TOTAL_DIFF","H2H_SURFACE_DIFF","PLAYER1_TOTAL_MATCHES","PLAYER2_TOTAL_MATCHES","PLAYER1_SURFACE_MATCHES","PLAYER2_SURFACE_MATCHES","PLAYER1_LAST_3_WINRATE","PLAYER2_LAST_3_WINRATE","PLAYER1_LAST_5_WINRATE","PLAYER2_LAST_5_WINRATE","PLAYER1_LAST_10_WINRATE","PLAYER2_LAST_10_WINRATE","PLAYER1_LAST_25_WINRATE","PLAYER2_LAST_25_WINRATE","PLAYER1_LAST_50_WINRATE","PLAYER2_LAST_50_WINRATE","PLAYER1_LAST_100_WINRATE","PLAYER2_LAST_100_WINRATE","PLAYER1_P_ACE_LAST_3","PLAYER2_P_ACE_LAST_3","PLAYER1_P_DF_LAST_3","PLAYER2_P_DF_LAST_3","PLAYER1_P_1STIN_LAST_3","PLAYER2_P_1STIN_LAST_3","PLAYER1_P_1STWON_LAST_3","PLAYER2_P_1STWON_LAST_3","PLAYER1_P_2NDWON_LAST_3","PLAYER2_P_2NDWON_LAST_3","PLAYER1_P_BPSAVED_LAST_3","PLAYER2_P_BPSAVED_LAST_3","PLAYER1_P_ACE_LAST_5","PLAYER2_P_ACE_LAST_5","PLAYER1_P_DF_LAST_5","PLAYER2_P_DF_LAST_5","PLAYER1_P_1STIN_LAST_5","PLAYER2_P_1STIN_LAST_5","PLAYER1_P_1STWON_LAST_5","PLAYER2_P_1STWON_LAST_5","PLAYER1_P_2NDWON_LAST_5","PLAYER2_P_2NDWON_LAST_5","PLAYER1_P_BPSAVED_LAST_5","PLAYER2_P_BPSAVED_LAST_5","PLAYER1_P_ACE_LAST_10","PLAYER2_P_ACE_LAST_10","PLAYER1_P_DF_LAST_10","PLAYER2_P_DF_LAST_10","PLAYER1_P_1STIN_LAST_10","PLAYER2_P_1STIN_LAST_10","PLAYER1_P_1STWON_LAST_10","PLAYER2_P_1STWON_LAST_10","PLAYER1_P_2NDWON_LAST_10","PLAYER2_P_2NDWON_LAST_10","PLAYER1_P_BPSAVED_LAST_10","PLAYER2_P_BPSAVED_LAST_10","PLAYER1_P_ACE_LAST_20","PLAYER2_P_ACE_LAST_20","PLAYER1_P_DF_LAST_20","PLAYER2_P_DF_LAST_20","PLAYER1_P_1STIN_LAST_20","PLAYER2_P_1STIN_LAST_20","PLAYER1_P_1STWON_LAST_20","PLAYER2_P_1STWON_LAST_20","PLAYER1_P_2NDWON_LAST_20","PLAYER2_P_2NDWON_LAST_20","PLAYER1_P_BPSAVED_LAST_20","PLAYER2_P_BPSAVED_LAST_20","PLAYER1_P_ACE_LAST_50","PLAYER2_P_ACE_LAST_50","PLAYER1_P_DF_LAST_50","PLAYER2_P_DF_LAST_50","PLAYER1_P_1STIN_LAST_50","PLAYER2_P_1STIN_LAST_50","PLAYER1_P_1STWON_LAST_50","PLAYER2_P_1STWON_LAST_50","PLAYER1_P_2NDWON_LAST_50","PLAYER2_P_2NDWON_LAST_50","PLAYER1_P_BPSAVED_LAST_50","PLAYER2_P_BPSAVED_LAST_50","PLAYER1_P_ACE_LAST_100","PLAYER2_P_ACE_LAST_100","PLAYER1_P_DF_LAST_100","PLAYER2_P_DF_LAST_100","PLAYER1_P_1STIN_LAST_100","PLAYER2_P_1STIN_LAST_100","PLAYER1_P_1STWON_LAST_100","PLAYER2_P_1STWON_LAST_100","PLAYER1_P_2NDWON_LAST_100","PLAYER2_P_2NDWON_LAST_100","PLAYER1_P_BPSAVED_LAST_100","PLAYER2_P_BPSAVED_LAST_100","PLAYER1_P_ACE_LAST_200","PLAYER2_P_ACE_LAST_200","PLAYER1_P_DF_LAST_200","PLAYER2_P_DF_LAST_200","PLAYER1_P_1STIN_LAST_200","PLAYER2_P_1STIN_LAST_200","PLAYER1_P_1STWON_LAST_200","PLAYER2_P_1STWON_LAST_200","PLAYER1_P_2NDWON_LAST_200","PLAYER2_P_2NDWON_LAST_200","PLAYER1_P_BPSAVED_LAST_200","PLAYER2_P_BPSAVED_LAST_200","PLAYER1_P_ACE_LAST_300","PLAYER2_P_ACE_LAST_300","PLAYER1_P_DF_LAST_300","PLAYER2_P_DF_LAST_300","PLAYER1_P_1STIN_LAST_300","PLAYER2_P_1STIN_LAST_300","PLAYER1_P_1STWON_LAST_300","PLAYER2_P_1STWON_LAST_300","PLAYER1_P_2NDWON_LAST_300","PLAYER2_P_2NDWON_LAST_300","PLAYER1_P_BPSAVED_LAST_300","PLAYER2_P_BPSAVED_LAST_300","PLAYER1_P_ACE_LAST_2000","PLAYER2_P_ACE_LAST_2000","PLAYER1_P_DF_LAST_2000","PLAYER2_P_DF_LAST_2000","PLAYER1_P_1STIN_LAST_2000","PLAYER2_P_1STIN_LAST_2000","PLAYER1_P_1STWON_LAST_2000","PLAYER2_P_1STWON_LAST_2000","PLAYER1_P_2NDWON_LAST_2000","PLAYER2_P_2NDWON_LAST_2000","PLAYER1_P_BPSAVED_LAST_2000","PLAYER2_P_BPSAVED_LAST_2000","PLAYER1_ELO_BEFORE","PLAYER2_ELO_BEFORE","ELO_DIFF","PLAYER1_ELO_SURFACE_BEFORE","PLAYER2_ELO_SURFACE_BEFORE","ELO_SURFACE_DIFF","year"],"feature_types":["float","int","float","float","float","float","float","float","int","float","float","float","float","int","float","float","float","float","float","float","float","int","int","int","int","float","float","float","float","float","float","float","float","float","float","float","float","float","float","float","float","float","float","float","float","float","float","float","float","float","float","float","float","float","float","float","float","float","float","float","float","float","float","float","float","float","float","float","float","float","float","float","float","float","float","float","float","float","float","float","float","float","float","float","float","float","float","float","float","float","float","float","float","float","float","float","float","float","float","float","float","float","float","float","float","float","float","float","float","float","float","float","float","float","float","float","float","float","float","float","float","float","float","float","float","float","float","float","float","float","float","float","float","float","float","float","float","float","float","float","float","float","float","float","float","float","float","float","float","float","float","int"],"gradient_booster":{"model":{"gbtree_model_param":{"num_parallel_tree":"1","num_trees":"100"},"iteration_indptr":[0,1,2,3,4,5,6,7,8,9,10,11,12,13,14,15,16,17,18,19,20,21,22,23,24,25,26,27,28,29,30,31,32,33,34,35,36,37,38,39,40,41,42,43,44,45,46,47,48,49,50,51,52,53,54,55,56,57,58,59,60,61,62,63,64,65,66,67,68,69,70,71,72,73,74,75,76,77,78,79,80,81,82,83,84,85,86,87,88,89,90,91,92,93,94,95,96,97,98,99,100],"tree_info":[0,0,0,0,0,0,0,0,0,0,0,0,0,0,0,0,0,0,0,0,0,0,0,0,0,0,0,0,0,0,0,0,0,0,0,0,0,0,0,0,0,0,0,0,0,0,0,0,0,0,0,0,0,0,0,0,0,0,0,0,0,0,0,0,0,0,0,0,0,0,0,0,0,0,0,0,0,0,0,0,0,0,0,0,0,0,0,0,0,0,0,0,0,0,0,0,0,0,0,0],"trees":[{"base_weights":[2.2884604E-4,-6.761953E-1,5.896544E-1,-1.1295336E0,-3.8957393E-1,2.274847E-1,1.013792E0,-1.4334323E0,-9.3363446E-1,-5.847986E-1,-2.0732416E-1,-5.3925747E-1,2.7150652E-1,8.433761E-1,1.4417971E0,-1.6807204E0,-1.3106503E0,-9.824066E-1,-3.449831E-1,-1.306184E0,-5.499383E-1,-1.2439336E0,-1.5206747E-1,4.0264025E-1,-7.5E-1,1.3311758E0,2.3597008E-1,5.758855E-1,9.5501304E-1,1.3143792E0,1.692683E0,-1.6983993E0,-1.0136986E0,-1.2177243E0,-1.565019E0,-1.3130288E0,-9.406412E-1,-1.3432835E0,-2.6213592E-1,-9.1729325E-1,-1.5511222E0,-6.8999857E-1,-4.0402249E-1,-1.3034301E0,4.827586E-1,5.2703863E-1,-2.1044081E-1,-2.777778E-1,9.93865E-1,-3.6658934E-1,-9.269357E-1,8.695652E-1,1.404792E0,1.256009E-1,5.015388E-1,1.3265994E0,5.321955E-1,1.6790123E0,9.3625057E-1,1.2220982E0,1.5630252E0,1.0526316E-1,1.7022495E0,-1.7157713E-1,-1.0285715E-1,6.666667E-2,-1.1764707E-1,-1.2604444E-1,-6.9473684E-2,2.857143E-2,-1.5800767E-1,5.454546E-2,-1.3259575E-1,-1.07470654E-1,-8.519363E-2,1.818182E-2,-1.5333334E-1,6.52819E-3,-4.8472505E-2,-1.0649351E-1,5.1282053E-3,-1.5805627E-1,-2.857143E-2,-7.3701404E-2,-3.7102085E-2,-4.2100526E-2,7.326733E-2,-5.2054793E-2,-1.37881E-1,-1.3333334E-1,1.4285715E-1,9.8305084E-2,3.707094E-2,-3.1270824E-2,-4.316547E-3,-6.7961164E-2,6.666667E-2,5.8823533E-2,1.3658537E-1,-2.0498617E-2,-1.1351352E-1,-1.487805E-1,-8.0052845E-2,1.1272728E-1,-1.25E-2,8.444445E-2,1.4681755E-1,-1.1909845E-2,1.927915E-2,3.3023097E-2,5.962495E-2,1.369863E-1,-6.666667E-2,1.5219721E-2,6.1556663E-2,1.818182E-2,1.7097792E-1,8.479752E-2,1.0724755E-1,8.222812E-2,1.267518E-1,7.8787886E-2,1.5990376E-1,1.1111112E-1,-5.714286E-2,1.6142768E-1,1.859155E-1],"categories":[],"categories_nodes":[],"categories_segments":[],"categories_sizes":[],"default_left":[0,0,0,0,0,0,0,0,0,0,0,0,0,0,0,0,0,0,0,0,0,0,0,0,0,0,0,0,0,0,0,0,0,0,0,0,0,0,0,0,0,0,0,0,0,0,0,0,0,0,0,0,0,0,0,0,0,0,0,0,0,0,0,0,0,0,0,0,0,0,0,0,0,0,0,0,0,0,0,0,0,0,0,0,0,0,0,0,0,0,0,0,0,0,0,0,0,0,0,0,0,0,0,0,0,0,0,0,0,0,0,0,0,0,0,0,0,0,0,0,0,0,0,0,0,0,0],"id":0,"left_children":[1,3,5,7,9,11,13,15,17,19,21,23,25,27,29,31,33,35,37,39,41,43,45,47,49,51,53,55,57,59,61,63,65,67,69,71,73,75,77,79,81,83,85,87,89,91,93,95,97,99,101,103,105,107,109,111,113,115,117,119,121,123,125,-1,-1,-1,-1,-1,-1,-1,-1,-1,-1,-1,-1,-1,-1,-1,-1,-1,-1,-1,-1,-1,-1,-1,-1,-1,-1,-1,-1,-1,-1,-1,-1,-1,-1,-1,-1,-1,-1,-1,-1,-1,-1,-1,-1,-1,-1,-1,-1,-1,-1,-1,-1,-1,-1,-1,-1,-1,-1,-1,-1,-1,-1,-1,-1],"loss_changes":[1.0453759E4,1.5859219E3,2.151958E3,2.8016553E2,2.6605908E2,2.5527975E2,4.69458E2,5.4013428E1,8.228784E1,9.0102295E1,2.215259E2,8.183501E1,2.6889478E2,1.3734473E2,5.6475586E1,5.4804688E0,2.7446045E1,3.545752E1,1.7988012E1,1.436554E1,7.01626E1,2.0739075E1,1.458338E2,3.0748783E1,2.2454102E1,6.6537476E0,2.0271512E2,4.3974E1,4.2664307E1,2.6134521E1,9.160278E0,5.1412354E0,5.7759857E0,1.9545044E1,9.612915E0,7.823456E0,2.7182861E1,5.1336937E0,1.5044851E1,9.564262E0,3.283142E0,2.6079834E1,3.294226E1,1.04653015E1,1.4357964E1,2.0398216E1,5.7905914E1,1.4115426E1,5.34531E0,1.3149803E1,1.5062317E1,8.983498E0,5.8013916E0,8.0397224E1,3.2751343E1,7.316269E0,4.074295E1,3.4203186E0,3.7289062E1,1.522876E1,7.875366E0,3.8680031E0,5.436157E0,0E0,0E0,0E0,0E0,0E0,0E0,0E0,0E0,0E0,0E0,0E0,0E0,0E0,0E0,0E0,0E0,0E0,0E0,0E0,0E0,0E0,0E0,0E0,0E0,0E0,0E0,0E0,0E0,0E0,0E0,0E0,0E0,0E0,0E0,0E0,0E0,0E0,0E0,0E0,0E0,0E0,0E0,0E0,0E0,0E0,0E0,0E0,0E0,0E0,0E0,0E0,0E0,0E0,0E0,0E0,0E0,0E0,0E0,0E0,0E0,0E0,0E0,0E0,0E0],"parents":[2147483647,0,0,1,1,2,2,3,3,4,4,5,5,6,6,7,7,8,8,9,9,10,10,11,11,12,12,13,13,14,14,15,15,16,16,17,17,18,18,19,19,20,20,21,21,22,22,23,23,24,24,25,25,26,26,27,27,28,28,29,29,30,30,31,31,32,32,33,33,34,34,35,35,36,36,37,37,38,38,39,39,40,40,41,41,42,42,43,43,44,44,45,45,46,46,47,47,48,48,49,49,50,50,51,51,52,52,53,53,54,54,55,55,56,56,57,57,58,58,59,59,60,60,61,61,62,62],"right_children":[2,4,6,8,10,12,14,16,18,20,22,24,26,28,30,32,34,36,38,40,42,44,46,48,50,52,54,56,58,60,62,64,66,68,70,72,74,76,78,80,82,84,86,88,90,92,94,96,98,100,102,104,106,108,110,112,114,116,118,120,122,124,126,-1,-1,-1,-1,-1,-1,-1,-1,-1,-1,-1,-1,-1,-1,-1,-1,-1,-1,-1,-1,-1,-1,-1,-1,-1,-1,-1,-1,-1,-1,-1,-1,-1,-1,-1,-1,-1,-1,-1,-1,-1,-1,-1,-1,-1,-1,-1,-1,-1,-1,-1,-1,-1,-1,-1,-1,-1,-1,-1,-1,-1,-1,-1,-1],"split_conditions":[-1.4215528E1,-1.6293385E2,1.1927647E2,-2.770323E2,-6.023037E1,2E0,2.770911E2,-3.989459E2,-1.4679476E1,2E0,1E0,1E0,1E0,9.573882E1,3.9884793E2,-7.958891E1,5E0,4E0,1E0,1.4999413E3,-9.9210556E1,1.35E2,3E0,5E0,1.4999413E3,6.407389E1,7.420313E1,1E0,1E0,5E0,3.846148E1,1.746899E3,5.177778E1,-1.0002451E2,4E1,3E0,-2.0056097E2,3.9E1,2.59E1,5.3192802E1,7.382976E0,7.5E1,3.58E2,1E0,2.841581E0,3.809789E1,-9E0,1E0,6.617998E1,1.5012968E3,-2.71E2,5.850287E0,1.4730425E3,-3.7329597E1,2.47E1,8.866995E0,1.5001499E3,4.5958206E1,1.9670978E2,1.2015767E2,1.6E1,1.97E2,5E0,-1.7157713E-1,-1.0285715E-1,6.666667E-2,-1.1764707E-1,-1.2604444E-1,-6.9473684E-2,2.857143E-2,-1.5800767E-1,5.454546E-2,-1.3259575E-1,-1.07470654E-1,-8.519363E-2,1.818182E-2,-1.5333334E-1,6.52819E-3,-4.8472505E-2,-1.0649351E-1,5.1282053E-3,-1.5805627E-1,-2.857143E-2,-7.3701404E-2,-3.7102085E-2,-4.2100526E-2,7.326733E-2,-5.2054793E-2,-1.37881E-1,-1.3333334E-1,1.4285715E-1,9.8305084E-2,3.707094E-2,-3.1270824E-2,-4.316547E-3,-6.7961164E-2,6.666667E-2,5.8823533E-2,1.3658537E-1,-2.0498617E-2,-1.1351352E-1,-1.487805E-1,-8.0052845E-2,1.1272728E-1,-1.25E-2,8.444445E-2,1.4681755E-1,-1.1909845E-2,1.927915E-2,3.3023097E-2,5.962495E-2,1.369863E-1,-6.666667E-2,1.5219721E-2,6.1556663E-2,1.818182E-2,1.7097792E-1,8.479752E-2,1.0724755E-1,8.222812E-2,1.267518E-1,7.8787886E-2,1.5990376E-1,1.1111112E-1,-5.714286E-2,1.6142768E-1,1.859155E-1],"split_indices":[147,147,147,147,150,23,147,147,150,23,23,24,24,150,147,150,8,23,23,148,147,15,24,15,148,55,150,24,24,8,45,148,72,150,58,24,150,22,4,93,63,11,11,24,39,46,15,23,67,146,15,85,146,150,7,39,148,93,150,150,23,23,8,0,0,0,0,0,0,0,0,0,0,0,0,0,0,0,0,0,0,0,0,0,0,0,0,0,0,0,0,0,0,0,0,0,0,0,0,0,0,0,0,0,0,0,0,0,0,0,0,0,0,0,0,0,0,0,0,0,0,0,0,0,0,0,0],"split_type":[0,0,0,0,0,0,0,0,0,0,0,0,0,0,0,0,0,0,0,0,0,0,0,0,0,0,0,0,0,0,0,0,0,0,0,0,0,0,0,0,0,0,0,0,0,0,0,0,0,0,0,0,0,0,0,0,0,0,0,0,0,0,0,0,0,0,0,0,0,0,0,0,0,0,0,0,0,0,0,0,0,0,0,0,0,0,0,0,0,0,0,0,0,0,0,0,0,0,0,0,0,0,0,0,0,0,0,0,0,0,0,0,0,0,0,0,0,0,0,0,0,0,0,0,0,0,0],"sum_hessian":[2.62175E4,1.220775E4,1.400975E4,4.7275E3,7.48025E3,7.55775E3,6.452E3,1.8505E3,2.877E3,3.6105E3,3.86975E3,4.0975E2,7.148E3,4.61675E3,1.83525E3,6.0975E2,1.24075E3,2.65625E3,2.2075E2,1.6475E2,3.44575E3,1.9475E2,3.675E3,7.475E1,3.35E2,2.3075E2,6.91725E3,1.36125E3,3.2555E3,1.22125E3,6.14E2,5.925E2,1.725E1,9.13E2,3.2775E2,2.945E2,2.36175E3,1.575E1,2.05E2,6.55E1,9.925E1,1.75625E3,1.6895E3,1.885E2,6.25E0,2.9025E2,3.38475E3,3.5E1,3.975E1,1.0675E2,2.2825E2,3.35E1,1.9725E2,4.8875E3,2.02975E3,7.325E1,1.288E3,8E1,3.1755E3,8.95E2,3.2625E2,3.75E0,6.1025E2,5.76E2,1.65E1,1.25E0,1.6E1,8.4275E2,7.025E1,2.5E0,3.2525E2,1.75E0,2.9275E2,9.36E2,1.42575E3,1.75E0,1.4E1,8.325E1,1.2175E2,5.675E1,8.75E0,9.675E1,2.5E0,1.5295E3,2.2675E2,1.66525E3,2.425E1,1.725E1,1.7125E2,2E0,4.25E0,7.275E1,2.175E2,2.1E3,1.28475E3,2.475E1,1.025E1,2.025E1,1.95E1,8.925E1,1.75E1,4E1,1.8825E2,2.65E1,7E0,2.15E1,1.7575E2,1.05275E3,3.83475E3,7.2425E2,1.3055E3,7.2E1,1.25E0,2.3225E2,1.05575E3,1.75E0,7.825E1,1.93125E3,1.24425E3,9.325E1,8.0175E2,1.55E1,3.1075E2,1.25E0,2.5E0,3.9825E2,2.12E2],"tree_param":{"num_deleted":"0","num_feature":"152","num_nodes":"127","size_leaf_vector":"1"}},{"base_weights":[-2.0750004E-3,-5.533777E-1,5.964025E-1,-9.2467016E-1,-2.1935071E-1,3.2887864E-1,1.0177323E0,-1.3171614E0,-7.682668E-1,3.5421893E-1,-2.649507E-1,1.1841977E0,2.9643926E-1,8.4635335E-1,1.3067663E0,-1.5433127E0,-1.2022924E0,-8.711353E-1,-5.316433E-1,1.4214188E-1,8.154184E-1,-3.242487E-1,8.130016E-2,1.456941E0,1.0170275E0,1.3084954E-1,4.8910052E-1,3.9153937E-1,8.868954E-1,1.1618831E0,1.4884757E0,-1.5639184E0,-8.545272E-1,-1.1164488E0,-1.4295924E0,-7.337227E-1,-1.0016221E0,-5.8983636E-1,-6.7829445E-2,-4.5623815E-1,2.722913E-1,1.1606352E0,3.7232277E-1,-6.1591756E-1,-2.5802377E-1,-6.52206E-3,4.0203997E-1,5.2808034E-1,1.562672E0,7.654664E-1,1.3711553E0,-3.5451186E-1,1.8276367E-1,5.4942346E-1,1.6316539E-1,1.2193172E0,2.94898E-1,1.0155212E0,7.594439E-1,1.0728307E0,1.4045994E0,1.3048873E0,1.5699134E0,-2.9810807E-2,-1.573456E-1,1.10195056E-1,-1.04167126E-1,-1.2008309E-1,-9.531974E-2,-6.551703E-2,-1.4675798E-1,-1.2470521E-1,-6.954086E-2,-1.10076606E-1,-8.419989E-2,-5.2233852E-2,-9.182444E-2,3.5008337E-4,-1.669164E-1,-7.6677874E-2,7.1954355E-2,3.339218E-2,-8.461059E-2,1.19190946E-1,-4.5705732E-2,-3.6773484E-2,5.161465E-2,-1.1214691E-1,-5.3655367E-2,-1.1259675E-3,-3.418194E-2,-1.5216743E-2,1.9875808E-2,-3.882172E-2,5.1444244E-2,8.762541E-2,-4.9591478E-2,1.5863514E-1,5.6920625E-2,-7.6369713E-3,8.729631E-2,1.4317763E-1,-1.1680571E-1,-9.34944E-2,-2.4496878E-2,-2.2427037E-2,2.2187626E-2,-4.0721733E-2,5.6684166E-2,4.610327E-2,4.1920203E-3,1.3416827E-1,-6.8035744E-2,9.526713E-2,2.0584073E-2,3.706792E-2,1.04876935E-1,1.2321637E-1,7.132955E-2,1.0827183E-1,-1.7919531E-2,4.6305507E-2,1.4637874E-1,1.5364493E-1,1.1949541E-1,6.449954E-3,1.5786694E-1],"categories":[],"categories_nodes":[],"categories_segments":[],"categories_sizes":[],"default_left":[0,0,0,0,0,0,0,0,0,0,0,0,0,0,0,0,0,0,0,0,0,0,0,0,0,0,0,0,0,0,0,0,0,0,0,0,0,0,0,0,0,0,0,0,0,0,0,0,0,0,0,0,0,0,0,0,0,0,0,0,0,0,0,0,0,0,0,0,0,0,0,0,0,0,0,0,0,0,0,0,0,0,0,0,0,0,0,0,0,0,0,0,0,0,0,0,0,0,0,0,0,0,0,0,0,0,0,0,0,0,0,0,0,0,0,0,0,0,0,0,0,0,0,0,0,0,0],"id":1,"left_children":[1,3,5,7,9,11,13,15,17,19,21,23,25,27,29,31,33,35,37,39,41,43,45,47,49,51,53,55,57,59,61,63,65,67,69,71,73,75,77,79,81,83,85,87,89,91,93,95,97,99,101,103,105,107,109,111,113,115,117,119,121,123,125,-1,-1,-1,-1,-1,-1,-1,-1,-1,-1,-1,-1,-1,-1,-1,-1,-1,-1,-1,-1,-1,-1,-1,-1,-1,-1,-1,-1,-1,-1,-1,-1,-1,-1,-1,-1,-1,-1,-1,-1,-1,-1,-1,-1,-1,-1,-1,-1,-1,-1,-1,-1,-1,-1,-1,-1,-1,-1,-1,-1,-1,-1,-1,-1],"loss_changes":[8.6825205E3,1.6985825E3,1.4218887E3,3.971797E2,1.8871957E2,2.1382068E2,2.4160156E2,4.6122803E1,1.1249609E2,5.1876198E1,1.3720758E2,1.1363342E1,2.3723749E2,5.6422607E1,4.623755E1,7.443115E0,2.2390625E1,5.7233887E1,3.7982544E1,2.8576155E1,2.5147629E1,1.1003009E2,2.7543211E1,9.461761E0,1.4805664E1,1.0089223E2,6.7500916E1,1.9941486E1,4.5556885E1,2.0502808E1,9.982666E0,6.767456E0,8.533912E0,1.1210327E1,8.847595E0,3.017694E1,2.527295E1,2.7263275E1,1.8073038E1,2.4518658E1,2.1008717E1,5.2763214E0,8.141164E0,4.1722168E1,9.616327E1,2.300817E1,1.886951E1,4.789528E0,1.2973022E0,9.688301E0,1.2856384E1,2.4376617E1,5.761E1,4.856067E1,1.942146E1,7.0056763E0,1.3192835E1,2.9703247E1,3.0174011E1,9.468506E0,1.4373779E1,4.6095276E0,7.1811523E0,0E0,0E0,0E0,0E0,0E0,0E0,0E0,0E0,0E0,0E0,0E0,0E0,0E0,0E0,0E0,0E0,0E0,0E0,0E0,0E0,0E0,0E0,0E0,0E0,0E0,0E0,0E0,0E0,0E0,0E0,0E0,0E0,0E0,0E0,0E0,0E0,0E0,0E0,0E0,0E0,0E0,0E0,0E0,0E0,0E0,0E0,0E0,0E0,0E0,0E0,0E0,0E0,0E0,0E0,0E0,0E0,0E0,0E0,0E0,0E0,0E0,0E0,0E0,0E0],"parents":[2147483647,0,0,1,1,2,2,3,3,4,4,5,5,6,6,7,7,8,8,9,9,10,10,11,11,12,12,13,13,14,14,15,15,16,16,17,17,18,18,19,19,20,20,21,21,22,22,23,23,24,24,25,25,26,26,27,27,28,28,29,29,30,30,31,31,32,32,33,33,34,34,35,35,36,36,37,37,38,38,39,39,40,40,41,41,42,42,43,43,44,44,45,45,46,46,47,47,48,48,49,49,50,50,51,51,52,52,53,53,54,54,55,55,56,56,57,57,58,58,59,59,60,60,61,61,62,62],"right_children":[2,4,6,8,10,12,14,16,18,20,22,24,26,28,30,32,34,36,38,40,42,44,46,48,50,52,54,56,58,60,62,64,66,68,70,72,74,76,78,80,82,84,86,88,90,92,94,96,98,100,102,104,106,108,110,112,114,116,118,120,122,124,126,-1,-1,-1,-1,-1,-1,-1,-1,-1,-1,-1,-1,-1,-1,-1,-1,-1,-1,-1,-1,-1,-1,-1,-1,-1,-1,-1,-1,-1,-1,-1,-1,-1,-1,-1,-1,-1,-1,-1,-1,-1,-1,-1,-1,-1,-1,-1,-1,-1,-1,-1,-1,-1,-1,-1,-1,-1,-1,-1,-1,-1,-1,-1,-1],"split_conditions":[7.6743574E0,-1.1927647E2,1.5719519E2,-2.770323E2,3E0,1E0,2.770911E2,-3.989459E2,-9.785022E1,9.5E1,3.5914097E1,1.65E2,6.0207386E1,1.794617E1,3.666069E2,-9.785022E1,5E0,-7E-1,3.732662E1,2.756281E0,1E0,-5.7E1,2.95E1,1.4810298E3,2.5E-1,-3.9E1,6.1E0,4.320189E1,2E-1,5E0,3.3809073E2,3.846154E1,5.177778E1,-2.4393582E2,1.7E1,-1.89E2,-7.41E2,1.56E2,1.24E1,6.7E1,1.02E1,5.967614E1,3.508772E0,2E0,-3.7E0,7.958891E1,1.7407931E0,1.12501854E2,6.966775E1,5.185783E1,7.6E-1,4.848156E1,-8.147501E1,4.5703163E1,9E0,6.921873E0,-8.4E0,5.1093193E1,2E0,8.1883705E1,5.3703606E1,-3.1E0,4.209633E1,-2.9810807E-2,-1.573456E-1,1.10195056E-1,-1.04167126E-1,-1.2008309E-1,-9.531974E-2,-6.551703E-2,-1.4675798E-1,-1.2470521E-1,-6.954086E-2,-1.10076606E-1,-8.419989E-2,-5.2233852E-2,-9.182444E-2,3.5008337E-4,-1.669164E-1,-7.6677874E-2,7.1954355E-2,3.339218E-2,-8.461059E-2,1.19190946E-1,-4.5705732E-2,-3.6773484E-2,5.161465E-2,-1.1214691E-1,-5.3655367E-2,-1.1259675E-3,-3.418194E-2,-1.5216743E-2,1.9875808E-2,-3.882172E-2,5.1444244E-2,8.762541E-2,-4.9591478E-2,1.5863514E-1,5.6920625E-2,-7.6369713E-3,8.729631E-2,1.4317763E-1,-1.1680571E-1,-9.34944E-2,-2.4496878E-2,-2.2427037E-2,2.2187626E-2,-4.0721733E-2,5.6684166E-2,4.610327E-2,4.1920203E-3,1.3416827E-1,-6.8035744E-2,9.526713E-2,2.0584073E-2,3.706792E-2,1.04876935E-1,1.2321637E-1,7.132955E-2,1.0827183E-1,-1.7919531E-2,4.6305507E-2,1.4637874E-1,1.5364493E-1,1.1949541E-1,6.449954E-3,1.5786694E-1],"split_indices":[147,147,147,147,24,24,147,147,150,15,150,12,150,150,147,150,8,16,150,97,24,15,7,146,28,15,16,70,16,8,150,46,72,150,24,15,14,9,16,14,16,57,73,21,16,150,40,147,83,41,35,41,150,117,24,39,16,41,24,140,150,16,57,0,0,0,0,0,0,0,0,0,0,0,0,0,0,0,0,0,0,0,0,0,0,0,0,0,0,0,0,0,0,0,0,0,0,0,0,0,0,0,0,0,0,0,0,0,0,0,0,0,0,0,0,0,0,0,0,0,0,0,0,0,0,0,0],"split_type":[0,0,0,0,0,0,0,0,0,0,0,0,0,0,0,0,0,0,0,0,0,0,0,0,0,0,0,0,0,0,0,0,0,0,0,0,0,0,0,0,0,0,0,0,0,0,0,0,0,0,0,0,0,0,0,0,0,0,0,0,0,0,0,0,0,0,0,0,0,0,0,0,0,0,0,0,0,0,0,0,0,0,0,0,0,0,0,0,0,0,0,0,0,0,0,0,0,0,0,0,0,0,0,0,0,0,0,0,0,0,0,0,0,0,0,0,0,0,0,0,0,0,0,0,0,0,0],"sum_hessian":[2.6313271E4,1.3696484E4,1.2616787E4,6.4855786E3,7.210906E3,7.7180083E3,4.8987793E3,1.8459015E3,4.6396772E3,5.305632E2,6.680343E3,2.8072455E2,7.4372837E3,3.0777788E3,1.8210002E3,6.1758307E2,1.2283185E3,3.2319534E3,1.4077239E3,3.6433588E2,1.662273E2,5.7036196E3,9.767232E2,1.0374538E2,1.7697917E2,4.000547E3,3.4367366E3,2.5277098E2,2.8250078E3,1.0172814E3,8.037189E2,5.984105E2,1.9172539E1,8.958841E2,3.324344E2,1.577426E3,1.6545272E3,1.2505499E3,1.5717387E2,6.4639824E1,2.9969604E2,9.2523026E1,7.370427E1,1.053866E3,4.6497534E3,7.675413E2,2.091819E2,1.121497E1,9.25304E1,1.0532278E2,7.1656395E1,3.8598877E2,3.6145583E3,2.8994338E3,5.373026E2,2.5210917E1,2.2756007E2,1.4025593E3,1.4224486E3,7.481909E2,2.6909042E2,2.5219913E2,5.515198E2,4.716383E0,5.9369415E2,1.2470587E0,1.792548E1,5.864178E2,3.0946634E2,1.6397442E1,3.1603693E2,1.07368164E2,1.4700579E3,1.01697485E3,6.3755237E2,1.039493E3,2.1105698E2,1.514265E2,5.7473693E0,5.140966E1,1.323016E1,2.847083E2,1.498773E1,9.102644E1,1.4965793E0,1.1739709E1,6.1964558E1,1.4121155E2,9.126544E2,1.1789824E3,3.4707712E3,4.4913834E2,3.1840295E2,2.5742535E1,1.8343936E2,8.476956E0,2.738013E0,8.979339E1,2.7370186E0,1.1958899E1,9.336388E1,7.041152E1,1.2448685E0,6.0084763E1,3.25904E2,3.1646448E2,3.298094E3,5.1447784E1,2.847986E3,1.5462572E2,3.826769E2,2.3961212E1,1.2497054E0,2.5979477E1,2.015806E2,6.936603E1,1.3331932E3,1.2422753E2,1.2982211E3,7.424628E2,5.7281256E0,1.6437105E1,2.5265332E2,7.701001E1,1.7518912E2,3.2376032E0,5.4828217E2],"tree_param":{"num_deleted":"0","num_feature":"152","num_nodes":"127","size_leaf_vector":"1"}},{"base_weights":[-1.7890134E-3,-4.832302E-1,5.035296E-1,-9.3115944E-1,-2.3468418E-1,2.2086374E-1,8.897281E-1,-1.3145101E0,-8.3033866E-1,-1.0552472E0,-1.8850638E-1,-1.7577785E-1,3.1301033E-1,7.423291E-1,1.1912189E0,-1.3920336E0,-1.0956769E0,-6.505847E-1,-9.2345464E-1,-1.318373E0,-8.3667207E-1,-3.825025E-1,3.007543E-2,5.81097E-1,-2.1398923E-1,1.8705088E-1,5.580075E-1,8.370232E-1,5.6192195E-1,1.0599513E0,1.3540848E0,-1.0292311E0,-1.4356813E0,-7.3455614E-1,-1.2104452E0,-9.81109E-1,-5.325803E-1,-8.6589843E-1,-1.1645418E0,-1.0548403E0,-1.4243262E0,-1.2082646E0,-6.8380374E-1,-5.8575517E-1,-2.8885925E-1,-6.86806E-2,2.5054538E-1,3.5558212E-1,1.6727929E-1,7.244795E-1,-2.4695364E-1,2.8570282E-1,-8.334207E-2,4.8907876E-1,1.0096397E0,7.763993E-1,1.0995569E0,1.1235145E0,5.185589E-1,1.0943718E0,5.3745455E-1,1.0224122E0,1.4203585E0,-1.52318E-1,-8.399811E-2,-1.4408344E-1,1.7214129E-2,2.70543E-2,-8.4202856E-2,-1.3056287E-1,-8.536124E-2,-7.4369445E-2,-1.2569588E-1,-7.3046245E-2,-4.040616E-2,-8.205375E-2,-1.0553771E-1,-4.4717085E-2,-1.2118886E-1,-1.4627822E-1,-4.460236E-2,-1.4723639E-1,-6.0271043E-2,-1.277021E-1,5.2614305E-3,-3.735208E-2,-8.909039E-2,-4.465809E-2,-7.209353E-2,-2.9261203E-3,-3.560465E-2,5.828923E-3,-1.9406112E-2,3.1214396E-2,-2.7404165E-2,4.777854E-2,-8.167499E-2,-3.2826867E-2,9.505527E-2,-4.5546617E-2,-1.1343283E-2,-2.4599688E-2,3.1094441E-2,-2.9663477E-2,3.1438915E-3,-8.178738E-3,5.308422E-2,1.37878E-1,7.993262E-2,7.061857E-2,9.518423E-2,7.134657E-2,1.1949402E-1,6.697845E-2,1.311389E-1,5.7448026E-2,2.324873E-2,1.1719866E-1,8.632237E-2,6.983475E-2,-6.2503405E-2,1.10959135E-1,-1.2966593E-2,1.336788E-1,1.6037342E-1],"categories":[],"categories_nodes":[],"categories_segments":[],"categories_sizes":[],"default_left":[0,0,0,0,0,0,0,0,0,0,0,0,0,0,0,0,0,0,0,0,0,0,0,0,0,0,0,0,0,0,0,0,0,0,0,0,0,0,0,0,0,0,0,1,0,0,0,0,0,0,0,0,0,0,0,0,0,0,0,0,0,0,0,0,0,0,0,0,0,0,0,0,0,0,0,0,0,0,0,0,0,0,0,0,0,0,0,0,0,0,0,0,0,0,0,0,0,0,0,0,0,0,0,0,0,0,0,0,0,0,0,0,0,0,0,0,0,0,0,0,0,0,0,0,0],"id":2,"left_children":[1,3,5,7,9,11,13,15,17,19,21,23,25,27,29,31,33,35,37,39,41,43,45,47,49,51,53,55,57,59,61,63,65,67,69,71,73,75,77,79,81,83,85,87,89,91,93,95,-1,97,99,101,103,105,107,109,111,113,115,117,119,121,123,-1,-1,-1,-1,-1,-1,-1,-1,-1,-1,-1,-1,-1,-1,-1,-1,-1,-1,-1,-1,-1,-1,-1,-1,-1,-1,-1,-1,-1,-1,-1,-1,-1,-1,-1,-1,-1,-1,-1,-1,-1,-1,-1,-1,-1,-1,-1,-1,-1,-1,-1,-1,-1,-1,-1,-1,-1,-1,-1,-1,-1,-1],"loss_changes":[6.358691E3,1.489929E3,1.3919182E3,1.8350781E2,3.260351E2,2.692206E2,2.3859521E2,1.5318359E1,6.27417E1,2.5265503E1,3.4569507E2,4.0295795E1,1.8432812E2,6.1406616E1,3.6360107E1,1.0073364E1,1.006958E1,4.9978394E1,3.3551025E1,4.2579956E0,1.3555588E1,8.203613E1,8.349612E1,1.5905931E1,4.1106476E1,1.0535332E2,6.266461E1,3.691809E1,2.9852936E1,1.709961E1,1.5811035E1,6.3732758E0,5.621582E0,7.3908195E0,5.6479797E0,2.1296722E1,2.4025665E1,1.6448364E1,1.5662781E1,1.4997803E1,4.8074646E0,6.3517914E0,1.1342384E1,2.5288666E1,5.1595184E1,4.217846E1,3.8420586E1,8.530215E0,0E0,1.10571E1,3.555178E1,3.8907883E1,2.5869999E1,4.205481E1,1.968103E1,2.3119995E1,1.5454651E1,6.685219E0,1.8456726E1,1.5524902E1,1.2173058E1,1.3639008E1,7.8480225E0,0E0,0E0,0E0,0E0,0E0,0E0,0E0,0E0,0E0,0E0,0E0,0E0,0E0,0E0,0E0,0E0,0E0,0E0,0E0,0E0,0E0,0E0,0E0,0E0,0E0,0E0,0E0,0E0,0E0,0E0,0E0,0E0,0E0,0E0,0E0,0E0,0E0,0E0,0E0,0E0,0E0,0E0,0E0,0E0,0E0,0E0,0E0,0E0,0E0,0E0,0E0,0E0,0E0,0E0,0E0,0E0,0E0,0E0,0E0,0E0,0E0,0E0],"parents":[2147483647,0,0,1,1,2,2,3,3,4,4,5,5,6,6,7,7,8,8,9,9,10,10,11,11,12,12,13,13,14,14,15,15,16,16,17,17,18,18,19,19,20,20,21,21,22,22,23,23,24,24,25,25,26,26,27,27,28,28,29,29,30,30,31,31,32,32,33,33,34,34,35,35,36,36,37,37,38,38,39,39,40,40,41,41,42,42,43,43,44,44,45,45,46,46,47,47,49,49,50,50,51,51,52,52,53,53,54,54,55,55,56,56,57,57,58,58,59,59,60,60,61,61,62,62],"right_children":[2,4,6,8,10,12,14,16,18,20,22,24,26,28,30,32,34,36,38,40,42,44,46,48,50,52,54,56,58,60,62,64,66,68,70,72,74,76,78,80,82,84,86,88,90,92,94,96,-1,98,100,102,104,106,108,110,112,114,116,118,120,122,124,-1,-1,-1,-1,-1,-1,-1,-1,-1,-1,-1,-1,-1,-1,-1,-1,-1,-1,-1,-1,-1,-1,-1,-1,-1,-1,-1,-1,-1,-1,-1,-1,-1,-1,-1,-1,-1,-1,-1,-1,-1,-1,-1,-1,-1,-1,-1,-1,-1,-1,-1,-1,-1,-1,-1,-1,-1,-1,-1,-1,-1,-1],"split_conditions":[2E1,-1.2739391E2,1.0862926E2,-3.132869E2,1E0,-5.224819E1,2.4977405E2,2.2E2,-2.6E0,-4.41E2,-1.6704031E1,4.616202E1,5.7E1,2.7E0,3.3809073E2,1.8125981E3,2.32E1,7E0,5E0,6.757263E1,-1.66E2,-5.5E1,6.682967E1,1.3E2,-1.18E1,3.2E0,2.71E2,5E0,3E0,4.9620223E0,2.496E3,6.573123E1,6.9315968E0,5.8735962E1,1.2E1,1.7247445E3,-1.19E3,5.3927876E1,1.6411353E3,1.65E2,7.0588236E0,6.666667E-1,3.7931034E-1,2E0,-4.2E0,2E-1,8.6E0,2.82E2,1.6727929E-1,4.852399E1,-1.1090628E2,3E0,1.2289394E1,3E0,1.7407931E0,7.1E1,5E2,1.4981123E3,2.021E3,3.8E0,5.719524E0,5.883396E0,5E0,-1.52318E-1,-8.399811E-2,-1.4408344E-1,1.7214129E-2,2.70543E-2,-8.4202856E-2,-1.3056287E-1,-8.536124E-2,-7.4369445E-2,-1.2569588E-1,-7.3046245E-2,-4.040616E-2,-8.205375E-2,-1.0553771E-1,-4.4717085E-2,-1.2118886E-1,-1.4627822E-1,-4.460236E-2,-1.4723639E-1,-6.0271043E-2,-1.277021E-1,5.2614305E-3,-3.735208E-2,-8.909039E-2,-4.465809E-2,-7.209353E-2,-2.9261203E-3,-3.560465E-2,5.828923E-3,-1.9406112E-2,3.1214396E-2,-2.7404165E-2,4.777854E-2,-8.167499E-2,-3.2826867E-2,9.505527E-2,-4.5546617E-2,-1.1343283E-2,-2.4599688E-2,3.1094441E-2,-2.9663477E-2,3.1438915E-3,-8.178738E-3,5.308422E-2,1.37878E-1,7.993262E-2,7.061857E-2,9.518423E-2,7.134657E-2,1.1949402E-1,6.697845E-2,1.311389E-1,5.7448026E-2,2.324873E-2,1.1719866E-1,8.632237E-2,6.983475E-2,-6.2503405E-2,1.10959135E-1,-1.2966593E-2,1.336788E-1,1.6037342E-1],"split_indices":[14,150,150,150,23,150,150,1,16,14,150,142,15,16,150,146,4,23,8,56,15,15,150,9,16,16,15,8,22,99,10,139,64,114,11,146,14,142,146,10,63,28,34,5,16,16,16,1,0,105,150,23,150,23,40,15,14,149,13,16,88,51,8,0,0,0,0,0,0,0,0,0,0,0,0,0,0,0,0,0,0,0,0,0,0,0,0,0,0,0,0,0,0,0,0,0,0,0,0,0,0,0,0,0,0,0,0,0,0,0,0,0,0,0,0,0,0,0,0,0,0,0,0,0,0],"split_type":[0,0,0,0,0,0,0,0,0,0,0,0,0,0,0,0,0,0,0,0,0,0,0,0,0,0,0,0,0,0,0,0,0,0,0,0,0,0,0,0,0,0,0,0,0,0,0,0,0,0,0,0,0,0,0,0,0,0,0,0,0,0,0,0,0,0,0,0,0,0,0,0,0,0,0,0,0,0,0,0,0,0,0,0,0,0,0,0,0,0,0,0,0,0,0,0,0,0,0,0,0,0,0,0,0,0,0,0,0,0,0,0,0,0,0,0,0,0,0,0,0,0,0,0,0],"sum_hessian":[2.6135205E4,1.3383833E4,1.2751373E4,4.7752104E3,8.608622E3,7.3634785E3,5.3878945E3,9.918528E2,3.7833577E3,4.5748184E2,8.1511406E3,1.3879957E3,5.975483E3,3.621032E3,1.7668628E3,7.284371E2,2.634157E2,1.2937842E3,2.4895735E3,2.0530241E2,2.5217943E2,4.318038E3,3.8331025E3,6.602344E1,1.3219723E3,3.9476538E3,2.0278291E3,2.3722305E3,1.2488014E3,9.82495E2,7.843678E2,8.0864876E1,6.475722E2,6.531163E1,1.981041E2,3.3846027E2,9.553239E2,2.0134758E3,4.7609756E2,6.2013885E1,1.4328853E2,7.149218E1,1.8068724E2,1.3602847E3,2.9577532E3,2.647766E3,1.1853364E3,5.581855E1,1.0204889E1,4.414768E1,1.2778246E3,2.8923376E3,1.055316E3,1.7611265E3,2.6670258E2,1.9304188E3,4.418117E2,8.7728134E1,1.1610734E3,9.207447E2,6.1750263E1,1.333637E2,6.510041E2,2.0447563E1,6.0417313E1,6.456069E2,1.9653236E0,6.1624155E0,5.9149216E1,1.542892E2,4.3814896E1,1.8388911E2,1.5457114E2,3.7430988E2,5.8101404E2,1.62886E3,3.846159E2,3.0123777E1,4.459738E2,3.629291E1,2.5720978E1,1.3462532E2,8.663197E0,6.778313E1,3.7090545E0,7.344843E1,1.0723881E2,6.723609E2,6.879238E2,6.0841077E2,2.3493423E3,1.315811E3,1.3319551E3,1.0611393E3,1.2419711E2,5.108584E1,4.7327123E0,7.724621E0,3.6423058E1,4.978878E2,7.799368E2,1.3068971E2,2.761648E3,3.686622E2,6.866539E2,1.1999193E2,1.6411346E3,9.478354E1,1.7191905E2,1.3822548E3,5.4816406E2,8.920575E1,3.5260596E2,2.7025267E1,6.0702866E1,9.703759E2,1.9069742E2,6.8624695E2,2.3449774E2,5.4593567E1,7.1566954E0,1.2401611E2,9.347579E0,4.5289456E2,1.9810953E2],"tree_param":{"num_deleted":"0","num_feature":"152","num_nodes":"125","size_leaf_vector":"1"}},{"base_weights":[1.9129168E-3,-5.537465E-1,4.068611E-1,-9.7765005E-1,-3.8566315E-1,1.4153202E-1,7.6915854E-1,-1.2560489E0,-8.824616E-1,-5.372169E-1,-2.2203454E-1,5.0095934E-1,8.8379696E-2,6.203511E-1,1.0742533E0,-1.1675946E0,-1.4281315E0,-9.32049E-1,-6.531086E-1,-4.825986E-1,-7.9316753E-1,-1.529101E-1,-4.731452E-1,8.998889E-1,3.8462603E-1,-2.8472904E-2,2.323817E-1,4.7660434E-1,7.337386E-1,9.793311E-1,1.3102729E0,-1.2576519E0,-9.0691584E-1,-6.5099865E-1,-1.4517988E0,-8.7353605E-1,-1.1307338E0,-8.02974E-1,-4.74357E-1,-2.837758E-1,-5.3735554E-1,-1.051102E0,-5.9422916E-1,5.106282E-1,-1.7504495E-1,-5.3289866E-1,1.4350252E-1,1.002409E0,1.6704564E-1,-6.1683264E-2,4.396089E-1,-5.915417E-1,-9.400551E-4,-4.3992928E-1,2.5781915E-1,4.3406603E-1,8.7528986E-1,8.411942E-1,6.261075E-1,8.984353E-1,1.2076935E0,1.8188123E-1,1.3184489E0,-1.309569E-1,-8.509599E-2,-1.0339518E-1,-5.039786E-2,-1.0515406E-1,6.3040204E-2,-1.962943E-2,-1.461765E-1,-7.44384E-2,-9.4130665E-2,-6.983629E-2,-1.1895441E-1,-1.0438718E-1,-5.8665205E-2,-5.1583994E-2,9.7396106E-2,-4.1036945E-2,-5.917078E-3,-8.743388E-2,-4.982363E-2,-1.1760038E-1,-8.69412E-2,-6.631418E-2,-1.6081028E-2,-5.1187135E-2,6.093062E-2,-1.1232863E-3,-2.3272589E-2,-1.22196965E-1,-4.77725E-2,-2.4184259E-3,1.2654816E-1,-1.808486E-2,1.0404038E-1,-1.5358846E-1,3.6204956E-2,-5.0193753E-2,2.6859883E-2,6.2205333E-2,3.0597871E-2,-3.6827177E-2,-1.0796311E-1,-4.201613E-2,2.9714785E-3,-9.549332E-2,-2.0489052E-2,1.9045424E-2,4.484008E-2,5.0871456E-3,4.7062196E-2,-9.12961E-2,9.129126E-2,9.588186E-2,7.4420676E-2,4.1926254E-2,7.061598E-2,8.362417E-2,1.05964474E-1,6.55569E-2,1.2436254E-1,1.0919124E-1,-5.2653104E-2,5.6492038E-2,1.3294607E-1],"categories":[],"categories_nodes":[],"categories_segments":[],"categories_sizes":[],"default_left":[0,0,0,0,0,0,0,0,0,0,0,0,0,0,0,0,0,0,0,0,0,0,0,0,0,0,0,0,0,0,0,0,0,0,0,0,0,0,0,0,0,0,0,0,0,0,0,0,0,0,0,0,0,0,0,0,0,0,0,0,0,0,0,0,0,0,0,0,0,0,0,0,0,0,0,0,0,0,0,0,0,0,0,0,0,0,0,0,0,0,0,0,0,0,0,0,0,0,0,0,0,0,0,0,0,0,0,0,0,0,0,0,0,0,0,0,0,0,0,0,0,0,0,0,0,0,0],"id":3,"left_children":[1,3,5,7,9,11,13,15,17,19,21,23,25,27,29,31,33,35,37,39,41,43,45,47,49,51,53,55,57,59,61,63,65,67,69,71,73,75,77,79,81,83,85,87,89,91,93,95,97,99,101,103,105,107,109,111,113,115,117,119,121,123,125,-1,-1,-1,-1,-1,-1,-1,-1,-1,-1,-1,-1,-1,-1,-1,-1,-1,-1,-1,-1,-1,-1,-1,-1,-1,-1,-1,-1,-1,-1,-1,-1,-1,-1,-1,-1,-1,-1,-1,-1,-1,-1,-1,-1,-1,-1,-1,-1,-1,-1,-1,-1,-1,-1,-1,-1,-1,-1,-1,-1,-1,-1,-1,-1],"loss_changes":[5.8402046E3,7.7921094E2,1.4431111E3,8.120068E1,1.9421338E2,1.6554842E2,2.8747778E2,1.0342651E1,2.5753174E1,5.64812E1,6.53638E1,5.146692E1,1.2708976E2,6.922119E1,4.530127E1,1.1222412E1,3.899475E0,2.1141968E1,1.0747177E1,3.6371216E1,3.6002777E1,4.3528076E1,3.0042496E1,1.8714493E1,2.1281387E1,6.464765E1,5.797345E1,3.1589752E1,2.7049316E1,2.6383423E1,5.2351685E0,7.095215E0,6.5839996E0,5.588877E0,2.901245E0,1.2208374E1,1.0094666E1,1.1087387E1,1.2031055E1,2.0634045E1,3.4225098E1,6.001465E0,1.199852E1,9.970978E0,2.7047836E1,2.7611877E1,1.3695549E1,1.0091232E1,1.1196913E1,1.4075975E1,1.86129E1,2.0787292E1,5.111736E1,1.4779058E1,4.1775177E1,2.3864105E1,1.2994461E1,1.2864685E1,1.949289E1,1.0161377E1,6.8432617E0,4.0749187E0,4.1365967E0,0E0,0E0,0E0,0E0,0E0,0E0,0E0,0E0,0E0,0E0,0E0,0E0,0E0,0E0,0E0,0E0,0E0,0E0,0E0,0E0,0E0,0E0,0E0,0E0,0E0,0E0,0E0,0E0,0E0,0E0,0E0,0E0,0E0,0E0,0E0,0E0,0E0,0E0,0E0,0E0,0E0,0E0,0E0,0E0,0E0,0E0,0E0,0E0,0E0,0E0,0E0,0E0,0E0,0E0,0E0,0E0,0E0,0E0,0E0,0E0,0E0,0E0,0E0,0E0],"parents":[2147483647,0,0,1,1,2,2,3,3,4,4,5,5,6,6,7,7,8,8,9,9,10,10,11,11,12,12,13,13,14,14,15,15,16,16,17,17,18,18,19,19,20,20,21,21,22,22,23,23,24,24,25,25,26,26,27,27,28,28,29,29,30,30,31,31,32,32,33,33,34,34,35,35,36,36,37,37,38,38,39,39,40,40,41,41,42,42,43,43,44,44,45,45,46,46,47,47,48,48,49,49,50,50,51,51,52,52,53,53,54,54,55,55,56,56,57,57,58,58,59,59,60,60,61,61,62,62],"right_children":[2,4,6,8,10,12,14,16,18,20,22,24,26,28,30,32,34,36,38,40,42,44,46,48,50,52,54,56,58,60,62,64,66,68,70,72,74,76,78,80,82,84,86,88,90,92,94,96,98,100,102,104,106,108,110,112,114,116,118,120,122,124,126,-1,-1,-1,-1,-1,-1,-1,-1,-1,-1,-1,-1,-1,-1,-1,-1,-1,-1,-1,-1,-1,-1,-1,-1,-1,-1,-1,-1,-1,-1,-1,-1,-1,-1,-1,-1,-1,-1,-1,-1,-1,-1,-1,-1,-1,-1,-1,-1,-1,-1,-1,-1,-1,-1,-1,-1,-1,-1,-1,-1,-1,-1,-1,-1],"split_conditions":[-3.194748E1,-2.1280981E2,1.1927647E2,-3.665813E2,-7.4179504E1,3.2608697E-1,2.5939667E2,5E0,-1.20165E2,4.9615383E0,3.2E0,5E0,3.1779793E1,1.2740278E2,3.9884793E2,3.5983362E0,4.4285713E1,5E0,2.58E1,2.32E1,5.8958197E0,2.2307506E0,6.792244E1,6.5431285E0,7.6743574E0,6.1143387E1,6E0,2.05E2,2.857143E-1,5E0,3.846148E1,-2.4393582E2,-2.027E3,5.0339695E1,6.862619E1,4.3333335E0,2.17E1,1.85E2,1.9901373E1,1.3E2,-2.1773251E2,6.180066E1,5.6246047E0,1.7E2,1.500929E3,1.5534272E0,1.0314429E1,5E-1,2.12E1,6.074074E0,6.1441526E0,2.9E0,-1.13133545E2,1.03E2,1.1313671E2,1.4864753E3,5.1768486E1,5.9996815E0,2.42E1,3.1328845E2,5.050071E1,3.6857266E2,3.4411114E1,-1.309569E-1,-8.509599E-2,-1.0339518E-1,-5.039786E-2,-1.0515406E-1,6.3040204E-2,-1.962943E-2,-1.461765E-1,-7.44384E-2,-9.4130665E-2,-6.983629E-2,-1.1895441E-1,-1.0438718E-1,-5.8665205E-2,-5.1583994E-2,9.7396106E-2,-4.1036945E-2,-5.917078E-3,-8.743388E-2,-4.982363E-2,-1.1760038E-1,-8.69412E-2,-6.631418E-2,-1.6081028E-2,-5.1187135E-2,6.093062E-2,-1.1232863E-3,-2.3272589E-2,-1.22196965E-1,-4.77725E-2,-2.4184259E-3,1.2654816E-1,-1.808486E-2,1.0404038E-1,-1.5358846E-1,3.6204956E-2,-5.0193753E-2,2.6859883E-2,6.2205333E-2,3.0597871E-2,-3.6827177E-2,-1.0796311E-1,-4.201613E-2,2.9714785E-3,-9.549332E-2,-2.0489052E-2,1.9045424E-2,4.484008E-2,5.0871456E-3,4.7062196E-2,-9.12961E-2,9.129126E-2,9.588186E-2,7.4420676E-2,4.1926254E-2,7.061598E-2,8.362417E-2,1.05964474E-1,6.55569E-2,1.2436254E-1,1.0919124E-1,-5.2653104E-2,5.6492038E-2,1.3294607E-1],"split_indices":[147,147,147,147,150,18,147,8,150,18,18,22,150,150,147,52,46,8,7,4,97,86,53,40,147,91,21,11,18,8,45,150,14,58,92,18,4,3,74,1,150,65,40,6,149,111,73,50,4,49,50,18,150,10,150,148,101,122,7,150,150,150,150,0,0,0,0,0,0,0,0,0,0,0,0,0,0,0,0,0,0,0,0,0,0,0,0,0,0,0,0,0,0,0,0,0,0,0,0,0,0,0,0,0,0,0,0,0,0,0,0,0,0,0,0,0,0,0,0,0,0,0,0,0,0,0,0],"split_type":[0,0,0,0,0,0,0,0,0,0,0,0,0,0,0,0,0,0,0,0,0,0,0,0,0,0,0,0,0,0,0,0,0,0,0,0,0,0,0,0,0,0,0,0,0,0,0,0,0,0,0,0,0,0,0,0,0,0,0,0,0,0,0,0,0,0,0,0,0,0,0,0,0,0,0,0,0,0,0,0,0,0,0,0,0,0,0,0,0,0,0,0,0,0,0,0,0,0,0,0,0,0,0,0,0,0,0,0,0,0,0,0,0,0,0,0,0,0,0,0,0,0,0,0,0,0,0],"sum_hessian":[2.5952932E4,1.0940412E4,1.5012519E4,3.1049539E3,7.8354585E3,8.66678E3,6.345739E3,7.8802167E2,2.3169321E3,4.0666348E3,3.7688235E3,1.1154492E3,7.5513306E3,4.2673887E3,2.0783503E3,5.256241E2,2.6239755E2,1.9025308E3,4.1440137E2,3.353833E3,7.1280164E2,2.9565647E3,8.122589E2,2.503195E2,8.6512976E2,4.1690747E3,3.382256E3,1.8840692E3,2.3833193E3,1.485901E3,5.924494E2,3.8781876E2,1.3780533E2,8.597543E0,2.5380002E2,1.4738706E3,4.2866016E2,2.2351454E2,1.9088683E2,7.2554724E2,2.628286E3,3.0851343E2,4.042882E2,9.473114E1,2.8618335E3,7.406275E2,7.1631386E1,2.1927629E2,3.1043205E1,9.487607E1,7.702537E2,1.9340022E2,3.9756743E3,1.227111E2,3.259545E3,1.7043137E3,1.7975545E2,1.1892217E3,1.1940978E3,1.1008625E3,3.8503845E2,4.429063E0,5.880204E2,3.4194684E2,4.5871944E1,1.0358239E2,3.422295E1,6.6867666E0,1.9107765E0,2.1617887E0,2.5163823E2,5.113544E2,9.6251624E2,5.2866024E1,3.7579413E2,1.0394028E2,1.19574265E2,1.8619757E2,4.6892633E0,4.634864E2,2.6206088E2,2.7115295E2,2.3571328E3,1.795858E2,1.2892763E2,3.4836835E2,5.591987E1,7.9690156E0,8.676213E1,7.4558636E2,2.116247E3,5.3337795E1,6.8728973E2,6.3168854E1,8.462536E0,6.7049966E0,2.125713E2,2.48305E0,2.8560156E1,4.0444828E1,5.443124E1,3.2410297E2,4.4615076E2,1.3390273E2,5.9497494E1,2.7003918E2,3.7056353E3,3.7493828E1,8.521728E1,2.4097644E3,8.497805E2,1.4863638E2,1.5556774E3,3.224514E0,1.7653093E2,5.334178E2,6.5580383E2,3.349267E2,8.59171E2,7.988559E2,3.0200665E2,2.470287E1,3.6033557E2,1.7016982E0,2.7273645E0,9.222671E0,5.7879767E2],"tree_param":{"num_deleted":"0","num_feature":"152","num_nodes":"127","size_leaf_vector":"1"}},{"base_weights":[9.401444E-4,-5.5176216E-1,3.406663E-1,-8.781536E-1,-3.9132094E-1,7.925077E-2,6.6850245E-1,-1.1729131E0,-7.718932E-1,-3.2019442E-1,-6.502844E-1,8.082937E-1,4.8990212E-2,4.951998E-1,9.133272E-1,-3.5065535E-2,-1.1888491E0,-9.202046E-1,-7.029738E-1,-8.149968E-3,-3.67872E-1,-1.1677889E0,-6.062917E-1,1.2150615E-1,9.51783E-1,-5.0722265E-1,9.526559E-2,1.1177975E0,4.7293648E-1,8.177763E-1,1.1827399E0,1.2203808E0,-4.8209244E-1,-1.1077921E0,-1.3459786E0,-6.176352E-1,-9.8049366E-1,-1.2503511E0,-6.813077E-1,-9.430082E-2,5.973447E-1,-6.826794E-1,-3.3541805E-1,6.0941726E-2,-1.2049711E0,-6.350909E-1,-6.1234947E-2,7.4437743E-1,-5.3965664E-1,1.0102501E0,-1.3451976E-1,-8.04904E-1,-3.1263444E-1,1.5909259E-1,-1.4741185E-1,1.1801498E0,-3.1687529E-3,3.5978514E-1,6.0711235E-1,5.583499E-1,8.591079E-1,1.2512499E0,9.4406784E-1,4.1878056E-2,1.4455695E-1,1.426715E-1,-8.889234E-2,-4.517197E-2,-1.13041535E-1,-2.6236612E-2,-1.3604394E-1,-2.6871417E-2,-8.250996E-2,-1.0355846E-1,-7.379144E-2,-1.3599731E-1,-4.5379743E-2,-5.9111357E-2,-8.19104E-2,-8.551643E-2,-2.1363774E-3,1.2997967E-1,4.1642647E-2,-7.418568E-2,4.067756E-3,-1.7778901E-2,-4.207751E-2,-2.653201E-2,-1.2607007E-1,-6.771209E-2,-2.3840467E-2,-2.3340482E-2,1.0378573E-1,8.7588355E-2,-8.699679E-2,-6.552771E-2,1.23723865E-1,9.347514E-2,1.4529525E-1,4.065645E-2,-9.3395576E-2,-8.441447E-2,4.535236E-2,3.8508486E-2,-4.1302774E-2,3.844107E-3,2.9182542E-2,4.2522337E-2,-1.843985E-2,-5.3002268E-2,1.2029415E-1,-1.069165E-1,8.287741E-2,-1.0079779E-1,3.7380856E-2,6.561096E-2,-8.521165E-4,4.125153E-2,8.5561365E-2,7.964383E-2,1.0689546E-1,1.2791103E-1,8.600317E-2,-7.008257E-2,9.658502E-2],"categories":[],"categories_nodes":[],"categories_segments":[],"categories_sizes":[],"default_left":[0,0,0,0,0,0,0,0,0,0,0,0,0,0,0,0,0,0,0,0,0,0,0,0,0,0,0,0,0,0,0,0,0,0,0,0,0,0,0,0,0,0,0,0,0,0,0,0,0,0,0,0,0,0,0,0,0,0,0,0,0,0,0,0,0,0,0,0,0,0,0,0,0,0,0,0,0,0,0,0,0,0,0,0,0,0,0,0,0,0,0,0,0,0,0,0,0,0,0,0,0,0,0,0,0,0,0,0,0,0,0,0,0,0,0,0,0,0,0,0,0,0,0,0,0],"id":4,"left_children":[1,3,5,7,9,11,13,15,17,19,21,23,25,27,29,31,33,35,37,39,41,43,45,47,49,51,53,55,57,59,61,63,65,67,69,71,73,75,77,79,81,83,85,-1,87,89,91,93,95,97,99,101,103,105,107,109,111,113,115,117,119,121,123,-1,-1,-1,-1,-1,-1,-1,-1,-1,-1,-1,-1,-1,-1,-1,-1,-1,-1,-1,-1,-1,-1,-1,-1,-1,-1,-1,-1,-1,-1,-1,-1,-1,-1,-1,-1,-1,-1,-1,-1,-1,-1,-1,-1,-1,-1,-1,-1,-1,-1,-1,-1,-1,-1,-1,-1,-1,-1,-1,-1,-1,-1],"loss_changes":[4.849998E3,5.145669E2,1.3709152E3,1.0056616E2,1.2124945E2,1.9633287E2,3.0065576E2,1.548938E1,2.3723267E1,7.699103E1,3.161792E1,3.4836624E1,2.2005374E2,5.7099243E1,7.472241E1,7.805945E0,9.266968E0,1.3133545E1,1.850299E1,3.588992E1,4.5636475E1,8.014267E0,2.0535889E1,2.6116531E1,1.876007E1,3.7786255E1,1.2226392E2,9.984894E0,6.0749207E1,2.2828003E1,1.1369141E1,5.5303574E-2,9.18961E0,7.843628E0,4.074402E0,9.032688E0,7.606201E0,4.704178E0,1.9054077E1,3.3403183E1,1.0350214E1,1.7948257E1,5.4708435E1,0E0,5.333954E0,2.0593597E1,1.2899166E1,7.6769733E0,7.1527634E0,7.9461365E0,7.239689E0,1.3169678E1,2.8088795E1,1.000621E2,3.4896824E1,5.910507E0,8.443784E0,4.220996E1,5.537915E1,1.2720795E1,2.3782104E1,5.366394E0,6.9562683E0,0E0,0E0,0E0,0E0,0E0,0E0,0E0,0E0,0E0,0E0,0E0,0E0,0E0,0E0,0E0,0E0,0E0,0E0,0E0,0E0,0E0,0E0,0E0,0E0,0E0,0E0,0E0,0E0,0E0,0E0,0E0,0E0,0E0,0E0,0E0,0E0,0E0,0E0,0E0,0E0,0E0,0E0,0E0,0E0,0E0,0E0,0E0,0E0,0E0,0E0,0E0,0E0,0E0,0E0,0E0,0E0,0E0,0E0,0E0,0E0,0E0,0E0],"parents":[2147483647,0,0,1,1,2,2,3,3,4,4,5,5,6,6,7,7,8,8,9,9,10,10,11,11,12,12,13,13,14,14,15,15,16,16,17,17,18,18,19,19,20,20,21,21,22,22,23,23,24,24,25,25,26,26,27,27,28,28,29,29,30,30,31,31,32,32,33,33,34,34,35,35,36,36,37,37,38,38,39,39,40,40,41,41,42,42,44,44,45,45,46,46,47,47,48,48,49,49,50,50,51,51,52,52,53,53,54,54,55,55,56,56,57,57,58,58,59,59,60,60,61,61,62,62],"right_children":[2,4,6,8,10,12,14,16,18,20,22,24,26,28,30,32,34,36,38,40,42,44,46,48,50,52,54,56,58,60,62,64,66,68,70,72,74,76,78,80,82,84,86,-1,88,90,92,94,96,98,100,102,104,106,108,110,112,114,116,118,120,122,124,-1,-1,-1,-1,-1,-1,-1,-1,-1,-1,-1,-1,-1,-1,-1,-1,-1,-1,-1,-1,-1,-1,-1,-1,-1,-1,-1,-1,-1,-1,-1,-1,-1,-1,-1,-1,-1,-1,-1,-1,-1,-1,-1,-1,-1,-1,-1,-1,-1,-1,-1,-1,-1,-1,-1,-1,-1,-1,-1,-1,-1,-1],"split_conditions":[-4.872549E1,-2.0520068E2,1.0144554E2,-3.5378256E2,4E0,1E0,2.1704782E2,4.061016E1,-2.5579207E2,1.500929E3,1E0,1E0,3E0,1E0,3.666069E2,2.195E3,5E0,-5.6E0,1E0,1.4999241E3,5E0,1.5151515E0,4.306028E1,9.411765E-1,4.03E2,1E0,4.5E0,1.2436374E1,1.2740278E2,1.00044304E2,3.769149E0,5.9196987E1,5.8015923E1,5.1468616E1,6.880746E1,7.371687E1,2.79E2,5.2143467E1,5E-1,2E0,3.448276E-1,6.5431285E0,-2.1E0,6.0941726E-2,2E0,1.2892554E1,6.430639E1,7.121212E1,7.001641E1,5.2562687E1,4.6230083E0,2.03E2,2E0,1.927239E1,2.6168224E-1,3.6E-1,5.7166668E1,1E0,8.8E0,5.511212E1,5E0,1.7118539E3,3.6241772E0,4.1878056E-2,1.4455695E-1,1.426715E-1,-8.889234E-2,-4.517197E-2,-1.13041535E-1,-2.6236612E-2,-1.3604394E-1,-2.6871417E-2,-8.250996E-2,-1.0355846E-1,-7.379144E-2,-1.3599731E-1,-4.5379743E-2,-5.9111357E-2,-8.19104E-2,-8.551643E-2,-2.1363774E-3,1.2997967E-1,4.1642647E-2,-7.418568E-2,4.067756E-3,-1.7778901E-2,-4.207751E-2,-2.653201E-2,-1.2607007E-1,-6.771209E-2,-2.3840467E-2,-2.3340482E-2,1.0378573E-1,8.7588355E-2,-8.699679E-2,-6.552771E-2,1.23723865E-1,9.347514E-2,1.4529525E-1,4.065645E-2,-9.3395576E-2,-8.441447E-2,4.535236E-2,3.8508486E-2,-4.1302774E-2,3.844107E-3,2.9182542E-2,4.2522337E-2,-1.843985E-2,-5.3002268E-2,1.2029415E-1,-1.069165E-1,8.287741E-2,-1.0079779E-1,3.7380856E-2,6.561096E-2,-8.521165E-4,4.125153E-2,8.5561365E-2,7.964383E-2,1.0689546E-1,1.2791103E-1,8.600317E-2,-7.008257E-2,9.658502E-2],"split_indices":[147,147,147,147,18,24,147,46,150,149,23,23,23,24,147,12,8,16,23,149,23,50,150,18,9,23,16,50,150,150,51,77,102,84,116,44,1,57,25,23,18,40,16,0,24,73,77,59,72,105,75,15,24,150,18,31,60,23,16,69,8,149,121,0,0,0,0,0,0,0,0,0,0,0,0,0,0,0,0,0,0,0,0,0,0,0,0,0,0,0,0,0,0,0,0,0,0,0,0,0,0,0,0,0,0,0,0,0,0,0,0,0,0,0,0,0,0,0,0,0,0,0,0,0,0],"split_type":[0,0,0,0,0,0,0,0,0,0,0,0,0,0,0,0,0,0,0,0,0,0,0,0,0,0,0,0,0,0,0,0,0,0,0,0,0,0,0,0,0,0,0,0,0,0,0,0,0,0,0,0,0,0,0,0,0,0,0,0,0,0,0,0,0,0,0,0,0,0,0,0,0,0,0,0,0,0,0,0,0,0,0,0,0,0,0,0,0,0,0,0,0,0,0,0,0,0,0,0,0,0,0,0,0,0,0,0,0,0,0,0,0,0,0,0,0,0,0,0,0,0,0,0,0],"sum_hessian":[2.5827816E4,9.831794E3,1.5996022E4,3.2387046E3,6.593089E3,8.900241E3,7.0957817E3,8.555173E2,2.3831875E3,5.1741895E3,1.4188992E3,3.5367706E2,8.546564E3,4.156539E3,2.9392424E3,1.1860609E1,8.436567E2,7.5217975E2,1.6310076E3,6.8594257E2,4.488247E3,1.09167786E2,1.3097314E3,6.1442E1,2.9223505E2,6.556718E2,7.890892E3,1.4180234E2,4.014737E3,2.1726997E3,7.6654285E2,2.660046E0,9.2005625E0,5.6186334E2,2.817933E2,1.2684319E2,6.253366E2,5.994083E1,1.5710668E3,6.0124115E2,8.470139E1,4.1758484E2,4.0706624E3,1.9217831E0,1.07246E2,1.2438452E3,6.588626E1,3.1572332E1,2.9869669E1,2.7737613E2,1.4858934E1,2.5793936E2,3.9773242E2,6.247952E3,1.6429401E3,1.3428036E2,7.5219655E0,2.1800059E3,1.8347312E3,3.0057654E2,1.872123E3,5.9228613E2,1.7425671E2,1.2105522E0,1.449494E0,1.1759998E0,8.024563E0,1.9427702E1,5.4243567E2,3.9630837E0,2.778302E2,4.8153004E1,7.8690186E1,5.0693918E2,1.1839739E2,5.206791E1,7.872919E0,9.527426E2,6.183242E2,5.165567E1,5.4958545E2,1.6080626E1,6.8620766E1,3.859823E2,3.1602522E1,1.4310403E3,2.639622E3,6.327042E0,1.0091896E2,1.1240427E3,1.1980246E2,5.7644104E1,8.242156E0,2.961713E1,1.9552016E0,2.8637487E1,1.2321823E0,2.396223E2,3.7753822E1,9.154385E0,5.7045493E0,2.5045868E2,7.4806747E0,4.967341E1,3.4805902E2,3.2736018E3,2.9743503E3,9.9042725E1,1.5438973E3,1.4733431E0,1.3280702E2,3.17219E0,4.349776E0,2.1404978E1,2.1586008E3,1.6994121E3,1.3531903E2,2.032512E2,9.7325325E1,1.4452903E3,4.268328E2,5.5079224E2,4.14939E1,1.8699951E0,1.7238672E2],"tree_param":{"num_deleted":"0","num_feature":"152","num_nodes":"125","size_leaf_vector":"1"}},{"base_weights":[1.9978387E-3,-3.3404785E-1,4.635975E-1,-6.4780474E-1,-1.1037994E-1,7.7360106E-1,2.9513124E-1,-9.464814E-1,-5.3632194E-1,-7.334017E-1,-8.361683E-2,6.6711664E-1,1.0271559E0,2.168396E-1,5.283279E-1,-1.1533672E0,-8.4869534E-1,-9.406058E-1,-5.084121E-1,1.1804343E-1,-8.653634E-1,3.2433805E-1,-1.393182E-1,1.1716182E0,6.3319916E-1,9.317664E-1,1.2249353E0,-1.5219E-1,2.4930938E-1,-2.3782851E-1,5.448567E-1,-1.1808283E0,-4.6669027E-1,-7.76947E-1,-1.0463389E0,3.1443456E-1,-9.971918E-1,-3.886085E-1,-6.2301224E-1,-8.132941E-1,2.9175168E-1,-9.3507034E-1,-4.205911E-1,7.326631E-1,2.0187499E-1,7.066255E-2,-1.9493148E-1,1.2125274E0,-4.942385E-2,2.6232117E-1,6.657935E-1,8.209876E-1,1.1208326E0,1.2397572E0,2.1507804E-1,8.775786E-1,-2.3917712E-1,3.233184E-1,8.625539E-2,4.3229297E-1,-6.296118E-1,6.202047E-1,3.8993472E-1,-1.0755015E-2,-1.1905175E-1,6.403431E-2,-9.288198E-2,-7.899126E-2,1.0527054E-2,-1.17765464E-1,-8.143354E-2,-6.348829E-2,8.4957786E-2,-7.1040235E-2,-1.1678411E-1,1.1259721E-2,-4.221967E-2,3.205814E-2,-6.382426E-2,-1.1169962E-1,5.0235886E-2,1.21979885E-1,1.490661E-2,-9.628024E-2,2.361951E-2,-7.152209E-2,2.4170717E-2,1.0299466E-1,5.6949623E-2,-2.5904758E-2,2.6125109E-2,-1.7348772E-2,1.715747E-2,-3.9196838E-2,-1.2946694E-2,1.0190236E-2,1.2449729E-1,-8.60033E-2,8.4539734E-2,-7.224654E-2,3.1861052E-2,7.803109E-2,5.6204397E-2,1.5946554E-2,8.455269E-2,1.3074532E-2,1.1441518E-1,1.2507473E-1,1.4095529E-2,-1.0564969E-1,6.864705E-2,1.0217201E-1,-3.768411E-2,-4.1117083E-2,-4.2383373E-3,5.1413722E-2,2.6310457E-2,6.176122E-2,2.565881E-3,-5.14691E-2,1.0501794E-1,1.2494612E-2,-1.22719996E-1,4.1313477E-2,6.769777E-2,4.6854563E-2,8.253361E-3],"categories":[],"categories_nodes":[],"categories_segments":[],"categories_sizes":[],"default_left":[0,0,0,0,0,0,0,0,0,0,0,0,0,0,0,0,0,0,0,0,0,0,0,0,0,0,0,0,0,0,0,0,0,0,0,0,0,0,0,0,0,0,0,0,0,0,0,0,0,0,0,0,0,1,0,0,0,0,0,0,0,0,0,0,0,0,0,0,0,0,0,0,0,0,0,0,0,0,0,0,0,0,0,0,0,0,0,0,0,0,0,0,0,0,0,0,0,0,0,0,0,0,0,0,0,0,0,0,0,0,0,0,0,0,0,0,0,0,0,0,0,0,0,0,0,0,0],"id":5,"left_children":[1,3,5,7,9,11,13,15,17,19,21,23,25,27,29,31,33,35,37,39,41,43,45,47,49,51,53,55,57,59,61,63,65,67,69,71,73,75,77,79,81,83,85,87,89,91,93,95,97,99,101,103,105,107,109,111,113,115,117,119,121,123,125,-1,-1,-1,-1,-1,-1,-1,-1,-1,-1,-1,-1,-1,-1,-1,-1,-1,-1,-1,-1,-1,-1,-1,-1,-1,-1,-1,-1,-1,-1,-1,-1,-1,-1,-1,-1,-1,-1,-1,-1,-1,-1,-1,-1,-1,-1,-1,-1,-1,-1,-1,-1,-1,-1,-1,-1,-1,-1,-1,-1,-1,-1,-1,-1],"loss_changes":[3.9682925E3,1.0388734E3,5.626416E2,2.0464478E2,1.4407437E2,1.0175586E2,1.2740552E2,3.2873535E1,5.017224E1,4.0091675E1,1.8841113E2,4.502881E1,1.9994263E1,6.2714172E1,2.23526E1,9.523865E0,1.5353638E1,2.0816574E1,5.7438232E1,8.106161E0,9.164291E0,4.966436E1,8.5194244E1,8.418152E0,3.0149902E1,1.4996826E1,5.1418457E0,3.815785E1,5.7993652E1,1.0184589E1,1.981372E1,5.2075195E0,1.1951334E1,9.694885E0,8.203583E0,7.2531133E0,1.2701843E1,3.466989E1,3.1039001E1,3.721651E0,5.3439097E0,8.857361E0,8.677809E0,1.0543381E1,2.1077934E1,3.7678608E1,7.433966E1,5.708618E0,5.358502E0,1.1555194E1,2.6950195E1,7.704712E0,6.269623E0,4.121582E0,4.583434E0,6.3902855E0,1.3231234E1,3.7858307E1,4.835933E1,9.038082E0,1.1080315E1,1.3289307E1,1.3611801E1,0E0,0E0,0E0,0E0,0E0,0E0,0E0,0E0,0E0,0E0,0E0,0E0,0E0,0E0,0E0,0E0,0E0,0E0,0E0,0E0,0E0,0E0,0E0,0E0,0E0,0E0,0E0,0E0,0E0,0E0,0E0,0E0,0E0,0E0,0E0,0E0,0E0,0E0,0E0,0E0,0E0,0E0,0E0,0E0,0E0,0E0,0E0,0E0,0E0,0E0,0E0,0E0,0E0,0E0,0E0,0E0,0E0,0E0,0E0,0E0,0E0,0E0,0E0,0E0],"parents":[2147483647,0,0,1,1,2,2,3,3,4,4,5,5,6,6,7,7,8,8,9,9,10,10,11,11,12,12,13,13,14,14,15,15,16,16,17,17,18,18,19,19,20,20,21,21,22,22,23,23,24,24,25,25,26,26,27,27,28,28,29,29,30,30,31,31,32,32,33,33,34,34,35,35,36,36,37,37,38,38,39,39,40,40,41,41,42,42,43,43,44,44,45,45,46,46,47,47,48,48,49,49,50,50,51,51,52,52,53,53,54,54,55,55,56,56,57,57,58,58,59,59,60,60,61,61,62,62],"right_children":[2,4,6,8,10,12,14,16,18,20,22,24,26,28,30,32,34,36,38,40,42,44,46,48,50,52,54,56,58,60,62,64,66,68,70,72,74,76,78,80,82,84,86,88,90,92,94,96,98,100,102,104,106,108,110,112,114,116,118,120,122,124,126,-1,-1,-1,-1,-1,-1,-1,-1,-1,-1,-1,-1,-1,-1,-1,-1,-1,-1,-1,-1,-1,-1,-1,-1,-1,-1,-1,-1,-1,-1,-1,-1,-1,-1,-1,-1,-1,-1,-1,-1,-1,-1,-1,-1,-1,-1,-1,-1,-1,-1,-1,-1,-1,-1,-1,-1,-1,-1,-1,-1,-1,-1,-1,-1],"split_conditions":[3.1925846E1,-1.1927647E2,2.5E-1,-2.770323E2,1E0,3.138244E2,1.5719519E2,-3.989459E2,2E0,6.2068966E1,6E0,1E0,5E0,6E0,7E0,1.7308005E3,5E0,2E0,-1E-1,-1.89E2,2.021E3,1E0,-4.5E0,6.681176E1,1.5247388E3,4.173882E2,7.226303E0,1E0,3.1E0,2.9665635E0,2.8E0,4.061016E1,5.488095E1,6.8028574E0,7.412328E0,-1.262E3,1.4999413E3,-1.02E1,4E0,4.3387313E0,2.03E1,2.03E2,3.0742867E0,4E-1,2E0,1.1E1,2E1,4.6923927E1,5.837729E1,1.8985323E0,-5E-1,-0E0,5.5731926E1,2.6E1,6.1197933E1,1.93E2,1.4832235E3,1.8E1,3E0,1.986532E0,4.8849903E1,1.5918218E3,1.93E2,-1.0755015E-2,-1.1905175E-1,6.403431E-2,-9.288198E-2,-7.899126E-2,1.0527054E-2,-1.17765464E-1,-8.143354E-2,-6.348829E-2,8.4957786E-2,-7.1040235E-2,-1.1678411E-1,1.1259721E-2,-4.221967E-2,3.205814E-2,-6.382426E-2,-1.1169962E-1,5.0235886E-2,1.21979885E-1,1.490661E-2,-9.628024E-2,2.361951E-2,-7.152209E-2,2.4170717E-2,1.0299466E-1,5.6949623E-2,-2.5904758E-2,2.6125109E-2,-1.7348772E-2,1.715747E-2,-3.9196838E-2,-1.2946694E-2,1.0190236E-2,1.2449729E-1,-8.60033E-2,8.4539734E-2,-7.224654E-2,3.1861052E-2,7.803109E-2,5.6204397E-2,1.5946554E-2,8.455269E-2,1.3074532E-2,1.1441518E-1,1.2507473E-1,1.4095529E-2,-1.0564969E-1,6.864705E-2,1.0217201E-1,-3.768411E-2,-4.1117083E-2,-4.2383373E-3,5.1413722E-2,2.6310457E-2,6.176122E-2,2.565881E-3,-5.14691E-2,1.0501794E-1,1.2494612E-2,-1.22719996E-1,4.1313477E-2,6.769777E-2,4.6854563E-2,8.253361E-3],"split_indices":[147,147,18,147,23,147,147,147,23,128,24,24,8,23,23,148,8,24,16,15,13,24,16,78,148,147,51,24,16,51,16,46,71,64,49,14,148,16,24,40,4,15,39,18,23,23,23,105,96,64,16,20,89,2,113,6,149,24,24,39,46,148,6,0,0,0,0,0,0,0,0,0,0,0,0,0,0,0,0,0,0,0,0,0,0,0,0,0,0,0,0,0,0,0,0,0,0,0,0,0,0,0,0,0,0,0,0,0,0,0,0,0,0,0,0,0,0,0,0,0,0,0,0,0,0,0,0],"split_type":[0,0,0,0,0,0,0,0,0,0,0,0,0,0,0,0,0,0,0,0,0,0,0,0,0,0,0,0,0,0,0,0,0,0,0,0,0,0,0,0,0,0,0,0,0,0,0,0,0,0,0,0,0,0,0,0,0,0,0,0,0,0,0,0,0,0,0,0,0,0,0,0,0,0,0,0,0,0,0,0,0,0,0,0,0,0,0,0,0,0,0,0,0,0,0,0,0,0,0,0,0,0,0,0,0,0,0,0,0,0,0,0,0,0,0,0,0,0,0,0,0,0,0,0,0,0,0],"sum_hessian":[2.5580316E4,1.48035625E4,1.0776754E4,6.160226E3,8.643337E3,3.7931643E3,6.9835894E3,1.672335E3,4.487891E3,3.5491125E2,8.288426E3,2.6738635E3,1.1193008E3,5.22973E3,1.7538591E3,5.3328033E2,1.1390546E3,2.8770334E2,4.2001875E3,4.76391E1,3.0727216E2,9.9515106E2,7.2932744E3,1.6632576E2,2.5075378E3,7.589627E2,3.603381E2,4.226369E2,4.8070933E3,3.6755478E1,1.7171036E3,5.1208185E2,2.1198458E1,8.3930316E2,2.9975146E2,1.2215463E1,2.7548788E2,2.0556208E3,2.1445667E3,6.909866E0,4.0729233E1,2.6468677E2,4.2585377E1,2.2845094E2,7.6670013E2,1.527097E3,5.7661772E3,1.6094066E2,5.385098E0,2.0330098E2,2.3042368E3,4.8192978E2,2.7703293E2,3.549015E2,5.4366207E0,3.221239E1,3.904245E2,3.305684E3,1.5014092E3,1.352256E1,2.3232916E1,1.1532195E3,5.638841E2,4.6897626E0,5.073921E2,6.129523E0,1.5068935E1,8.272501E2,1.2053001E1,1.8880844E2,1.1094303E2,4.336446E0,7.879017E0,1.0469789E2,1.7078998E2,1.2895734E2,1.9266636E3,3.3746647E1,2.11082E3,5.736631E0,1.1732348E0,4.4216084E0,3.6307625E1,2.587386E2,5.948177E0,2.9418407E1,1.3166969E1,7.907227E1,1.4937866E2,8.71115E1,6.795886E2,4.4638327E2,1.0807137E3,1.436768E3,4.3294097E3,4.6857376E0,1.5625491E2,2.845902E0,2.5391958E0,1.035227E1,1.9294872E2,1.09218E3,1.2120568E3,1.750608E1,4.644237E2,6.5267506E0,2.705062E2,3.5125006E2,3.651424E0,1.1346614E0,4.301959E0,2.9058836E1,3.1535554E0,2.0775848E2,1.8266603E2,7.911085E2,2.5145754E3,1.5275398E2,1.3486552E3,5.405305E0,8.117255E0,1.061746E1,1.2615456E1,2.4992752E2,9.03292E2,4.4863232E2,1.15251785E2],"tree_param":{"num_deleted":"0","num_feature":"152","num_nodes":"127","size_leaf_vector":"1"}},{"base_weights":[-2.8154172E-3,-3.3466747E-1,3.801453E-1,-5.801163E-1,-1.1129726E-1,2.5480187E-1,7.779654E-1,-8.567647E-1,-4.6244958E-1,-7.980252E-1,-8.442763E-2,1.0884862E-1,3.750056E-1,7.052127E-1,1.093658E0,-1.0409496E0,-7.487689E-1,-1.8978001E-1,-4.9791494E-1,-6.00353E-2,-9.3353236E-1,4.9736285E-1,-1.13489956E-1,8.5857683E-1,8.274661E-2,6.220955E-1,3.269835E-1,6.402189E-1,9.114716E-1,1.1140977E0,4.7377685E-1,-1.5228117E-1,-1.0561179E0,-6.7511094E-1,-9.6616095E-1,5.817592E-1,-2.512049E-1,-7.369415E-1,-4.4711193E-1,-6.3236654E-1,1.734629E-1,-9.942338E-1,-3.5380328E-1,1.3617171E-1,6.594614E-1,9.5187105E-2,-1.6983344E-1,5.850364E-1,1.032851E0,-3.9929086E-1,1.1648128E-1,-8.325249E-1,6.5855473E-1,4.3983868E-1,1.9986403E-1,7.011611E-1,4.8968548E-1,5.481681E-1,9.557358E-1,8.018669E-1,1.152612E0,-7.6397836E-1,8.320812E-1,1.1936275E-1,-6.8399966E-2,-9.768913E-2,-1.2112445E-1,-6.885922E-2,3.002485E-2,-1.5188338E-2,-1.0016123E-1,9.00301E-2,-8.078556E-3,-9.261862E-2,-1.9030927E-2,-6.4038776E-2,-1.0204389E-1,-3.1802192E-2,-5.6122243E-2,6.004886E-2,-8.1722856E-2,1.2074138E-5,1.3057743E-1,-1.05758905E-1,-4.026554E-2,1.07588984E-1,-7.654574E-2,-1.9604243E-2,5.2144375E-2,-3.1591416E-3,7.488964E-2,-2.3090398E-2,1.4209655E-2,-4.3086898E-2,-1.3928105E-2,9.915628E-2,2.749995E-2,6.5550804E-2,1.3607001E-1,-4.709142E-2,1.2171721E-2,1.8205909E-2,-8.351393E-3,-1.1849423E-1,4.0399015E-2,7.1928315E-2,2.3513895E-2,1.479034E-2,4.848246E-2,2.2328628E-2,-5.635893E-2,4.2622406E-2,7.391308E-2,1.12591855E-1,4.491761E-2,8.37771E-2,7.31041E-3,6.150515E-2,1.0093021E-1,8.576753E-2,-1.1210113E-1,-1.6809335E-2,1.16219185E-1,4.0390372E-2,-1.333736E-1,1.0606583E-1,-7.1573995E-2],"categories":[],"categories_nodes":[],"categories_segments":[],"categories_sizes":[],"default_left":[0,0,0,0,0,0,0,0,0,0,0,0,0,0,0,0,0,0,0,0,0,0,0,0,0,0,0,0,0,0,0,0,0,0,0,0,0,0,0,0,0,0,0,0,0,0,0,0,0,0,0,0,0,0,0,0,0,0,0,0,0,0,0,0,0,0,0,0,0,0,0,0,0,0,0,0,0,0,0,0,0,0,0,0,0,0,0,0,0,0,0,0,0,0,0,0,0,0,0,0,0,0,0,0,0,0,0,0,0,0,0,0,0,0,0,0,0,0,0,0,0,0,0,0,0,0,0],"id":6,"left_children":[1,3,5,7,9,11,13,15,17,19,21,23,25,27,29,31,33,35,37,39,41,43,45,47,49,51,53,55,57,59,61,63,65,67,69,71,73,75,77,79,81,83,85,87,89,91,93,95,97,99,101,103,105,107,109,111,113,115,117,119,121,123,125,-1,-1,-1,-1,-1,-1,-1,-1,-1,-1,-1,-1,-1,-1,-1,-1,-1,-1,-1,-1,-1,-1,-1,-1,-1,-1,-1,-1,-1,-1,-1,-1,-1,-1,-1,-1,-1,-1,-1,-1,-1,-1,-1,-1,-1,-1,-1,-1,-1,-1,-1,-1,-1,-1,-1,-1,-1,-1,-1,-1,-1,-1,-1,-1],"loss_changes":[3.2244287E3,7.451853E2,5.8714856E2,2.104187E2,1.312715E2,1.5712555E2,6.403369E1,3.763794E1,4.3865112E1,2.6734161E1,1.15893135E2,7.9131065E1,5.8082397E1,3.0194946E1,6.1448975E0,9.427307E0,1.8900146E1,2.5018515E1,4.851056E1,5.806379E0,7.6106567E0,1.9004639E1,7.674381E1,5.88179E0,6.3663956E1,4.288098E1,5.894467E1,1.570343E1,8.284882E0,5.197815E0,8.862958E0,1.0195541E1,7.410034E0,1.2242889E1,8.701538E0,8.304355E0,1.9833775E1,1.860205E1,4.8720093E1,3.3548803E0,6.0963216E0,7.2300262E0,1.4359067E1,1.3193955E1,1.3920036E1,2.1265125E1,4.0922974E1,6.691656E0,9.227997E0,9.614281E0,4.7978645E1,9.176325E0,1.9868134E1,2.8543823E1,3.4762535E1,1.2658936E1,1.2571419E1,8.446053E0,8.265228E0,7.3131485E0,5.9003906E0,3.6567566E0,6.0183897E0,0E0,0E0,0E0,0E0,0E0,0E0,0E0,0E0,0E0,0E0,0E0,0E0,0E0,0E0,0E0,0E0,0E0,0E0,0E0,0E0,0E0,0E0,0E0,0E0,0E0,0E0,0E0,0E0,0E0,0E0,0E0,0E0,0E0,0E0,0E0,0E0,0E0,0E0,0E0,0E0,0E0,0E0,0E0,0E0,0E0,0E0,0E0,0E0,0E0,0E0,0E0,0E0,0E0,0E0,0E0,0E0,0E0,0E0,0E0,0E0,0E0,0E0,0E0,0E0],"parents":[2147483647,0,0,1,1,2,2,3,3,4,4,5,5,6,6,7,7,8,8,9,9,10,10,11,11,12,12,13,13,14,14,15,15,16,16,17,17,18,18,19,19,20,20,21,21,22,22,23,23,24,24,25,25,26,26,27,27,28,28,29,29,30,30,31,31,32,32,33,33,34,34,35,35,36,36,37,37,38,38,39,39,40,40,41,41,42,42,43,43,44,44,45,45,46,46,47,47,48,48,49,49,50,50,51,51,52,52,53,53,54,54,55,55,56,56,57,57,58,58,59,59,60,60,61,61,62,62],"right_children":[2,4,6,8,10,12,14,16,18,20,22,24,26,28,30,32,34,36,38,40,42,44,46,48,50,52,54,56,58,60,62,64,66,68,70,72,74,76,78,80,82,84,86,88,90,92,94,96,98,100,102,104,106,108,110,112,114,116,118,120,122,124,126,-1,-1,-1,-1,-1,-1,-1,-1,-1,-1,-1,-1,-1,-1,-1,-1,-1,-1,-1,-1,-1,-1,-1,-1,-1,-1,-1,-1,-1,-1,-1,-1,-1,-1,-1,-1,-1,-1,-1,-1,-1,-1,-1,-1,-1,-1,-1,-1,-1,-1,-1,-1,-1,-1,-1,-1,-1,-1,-1,-1,-1,-1,-1,-1],"split_conditions":[1.4221645E1,-1.1028136E2,2.1704782E2,-2.595147E2,1E0,8.434493E1,3.9884793E2,-3.665813E2,1.5293784E3,6.3209404E1,2E0,1E0,6E0,5E0,1.7432941E3,4.1376892E1,5E0,6.540087E1,8E0,2.17E1,6.666667E-1,1.4999241E3,-4.3E0,8E0,3E0,1E0,2E-1,3.9199116E0,2.16E1,1.743268E3,5.418182E1,2.195E3,5E0,2.0200329E1,1.3E1,6.661182E1,1E0,5E-1,-2E-1,9E1,3.8056324E0,6.450662E1,1.5166102E3,3.61E2,2.4E1,4E0,6E0,2.35E1,4.944045E1,5.4138268E1,3.9E0,4.3956044E-1,6.680631E1,1.8E1,1.18E1,1.6167225E3,5.969132E1,6.149724E1,5.625E-1,1.7399519E3,3.846148E1,2.74E1,8.75E1,1.1936275E-1,-6.8399966E-2,-9.768913E-2,-1.2112445E-1,-6.885922E-2,3.002485E-2,-1.5188338E-2,-1.0016123E-1,9.00301E-2,-8.078556E-3,-9.261862E-2,-1.9030927E-2,-6.4038776E-2,-1.0204389E-1,-3.1802192E-2,-5.6122243E-2,6.004886E-2,-8.1722856E-2,1.2074138E-5,1.3057743E-1,-1.05758905E-1,-4.026554E-2,1.07588984E-1,-7.654574E-2,-1.9604243E-2,5.2144375E-2,-3.1591416E-3,7.488964E-2,-2.3090398E-2,1.4209655E-2,-4.3086898E-2,-1.3928105E-2,9.915628E-2,2.749995E-2,6.5550804E-2,1.3607001E-1,-4.709142E-2,1.2171721E-2,1.8205909E-2,-8.351393E-3,-1.1849423E-1,4.0399015E-2,7.1928315E-2,2.3513895E-2,1.479034E-2,4.848246E-2,2.2328628E-2,-5.635893E-2,4.2622406E-2,7.391308E-2,1.12591855E-1,4.491761E-2,8.37771E-2,7.31041E-3,6.150515E-2,1.0093021E-1,8.576753E-2,-1.1210113E-1,-1.6809335E-2,1.16219185E-1,4.0390372E-2,-1.333736E-1,1.0606583E-1,-7.1573995E-2],"split_indices":[147,147,147,147,23,147,147,147,149,104,24,24,24,8,149,46,8,116,23,7,28,149,16,23,23,23,16,63,7,148,72,12,8,37,24,44,23,27,16,9,112,65,146,12,0,23,23,4,57,81,16,36,42,23,16,148,56,42,31,148,45,7,47,0,0,0,0,0,0,0,0,0,0,0,0,0,0,0,0,0,0,0,0,0,0,0,0,0,0,0,0,0,0,0,0,0,0,0,0,0,0,0,0,0,0,0,0,0,0,0,0,0,0,0,0,0,0,0,0,0,0,0,0,0,0,0,0],"split_type":[0,0,0,0,0,0,0,0,0,0,0,0,0,0,0,0,0,0,0,0,0,0,0,0,0,0,0,0,0,0,0,0,0,0,0,0,0,0,0,0,0,0,0,0,0,0,0,0,0,0,0,0,0,0,0,0,0,0,0,0,0,0,0,0,0,0,0,0,0,0,0,0,0,0,0,0,0,0,0,0,0,0,0,0,0,0,0,0,0,0,0,0,0,0,0,0,0,0,0,0,0,0,0,0,0,0,0,0,0,0,0,0,0,0,0,0,0,0,0,0,0,0,0,0,0,0,0],"sum_hessian":[2.5369957E4,1.3592015E4,1.1777943E4,6.4751953E3,7.1168193E3,8.957344E3,2.8206E3,1.930374E3,4.5448213E3,2.668943E2,6.8499253E3,4.04624E3,4.911103E3,2.2949524E3,5.256477E2,7.1031116E2,1.2200629E3,5.2382544E2,4.0209956E3,4.1627644E1,2.2526663E2,3.251298E2,6.5247954E3,1.3505853E2,3.9111816E3,7.9721356E2,4.1138896E3,1.7481882E3,5.4676416E2,5.0809665E2,1.7551058E1,1.2105809E1,6.982054E2,9.143598E2,3.057031E2,3.8003536E1,4.858219E2,7.0245575E2,3.3185398E3,1.1567102E1,3.0060543E1,2.0326813E2,2.1998507E1,1.0128489E2,2.238449E2,1.3870278E3,5.1377676E3,5.425576E1,8.080278E1,2.5510658E2,3.656075E3,1.8959225E1,7.7825433E2,2.1779087E3,1.935981E3,1.241799E3,5.0638934E2,6.083534E1,4.8592883E2,5.8188564E1,4.4990808E2,3.685919E0,1.3865139E1,3.0756762E0,9.030132E0,4.66997E2,2.3120834E2,9.0218396E2,1.2175819E1,1.29746275E1,2.927285E2,2.542211E1,1.2581427E1,3.902709E1,4.467948E2,5.264245E2,1.7603125E2,1.5588469E3,1.759693E3,1.2151161E0,1.0351986E1,2.6936953E1,3.123591E0,1.8289337E2,2.037475E1,4.5572834E0,1.7441223E1,5.4651176E1,4.6633713E1,2.5724174E1,1.9812073E2,1.7394266E2,1.2130852E3,5.3695905E2,4.6008086E3,2.2523846E1,3.1731915E1,3.8960274E1,4.1842503E1,2.2435982E2,3.0746763E1,2.7533499E3,9.0272504E2,1.4786619E1,4.172605E0,6.8002313E2,9.823118E1,2.9136804E2,1.8865406E3,1.8790406E3,5.6940216E1,1.5216995E2,1.089629E3,2.8708279E1,4.7768106E2,3.7320793E1,2.3514545E1,6.7718315E1,4.1821054E2,5.708571E1,1.1028564E0,3.1207955E0,4.467873E2,1.3040298E0,2.3818893E0,1.2355291E1,1.5098479E0],"tree_param":{"num_deleted":"0","num_feature":"152","num_nodes":"127","size_leaf_vector":"1"}},{"base_weights":[-1.4823321E-3,-4.0393227E-1,2.5566593E-1,-2.5548646E-1,-6.9602627E-1,5.7687515E-1,8.265717E-2,-4.5964938E-1,-1.6316044E-1,-8.758347E-1,-5.8514875E-1,4.7541517E-1,8.574505E-1,-1.2596963E-2,2.758109E-1,2.029172E-1,-4.942927E-1,5.349731E-1,-1.8301211E-1,-7.9656464E-1,-1.0900296E0,-5.1530164E-1,-8.241083E-1,8.383848E-1,4.2515364E-1,7.7686775E-1,1.0813543E0,-5.9177417E-1,2.0141998E-2,2.980578E-1,-4.903819E-1,3.9999926E-1,-4.6919298E-1,-6.6275287E-1,-4.1952822E-1,3.3847362E-1,9.7767943E-1,-9.155045E-2,-2.8481585E-1,-7.0589036E-1,-9.7503126E-1,-1.2765192E0,-9.419699E-1,-6.316054E-1,-3.796161E-1,-5.999778E-1,-9.2585045E-1,5.049247E-1,9.931423E-1,3.0001852E-1,5.5734193E-1,1.0223415E0,6.9562805E-1,9.520856E-1,1.2615492E0,-2.3494503E-2,-7.1099424E-1,4.9985948E-1,-9.472719E-3,2.616823E-1,5.8743346E-1,2.813612E-1,-6.291478E-1,1.7122136E-2,9.525685E-2,-1.0829953E-1,1.8668266E-2,9.737735E-2,-6.7616485E-2,-3.4517072E-2,-6.4255916E-2,1.3169392E-2,8.34037E-2,3.7349593E-2,1.2879275E-1,-1.4818639E-2,1.2895389E-2,-1.897109E-2,-4.287692E-2,-7.266912E-2,5.6646677E-4,7.849794E-2,-9.9055074E-2,3.432878E-3,-1.2884723E-1,-7.2821535E-2,-1.0968565E-1,-4.850977E-2,-7.557103E-2,-4.8788574E-2,-1.9366175E-2,-7.595501E-2,-1.0295649E-2,-9.39577E-2,6.2779866E-2,-6.6111326E-2,5.9212048E-2,5.182699E-2,1.0348244E-1,3.835131E-2,1.3185652E-2,4.9499243E-2,7.8847945E-2,1.04247175E-1,-1.4797826E-2,9.959089E-2,6.49091E-2,1.12810336E-1,7.0962094E-2,6.3435747E-3,1.2781464E-1,-3.5696667E-2,4.70491E-2,-5.4101296E-2,-9.393694E-2,2.6254086E-2,7.09202E-2,2.1777848E-2,-6.501857E-3,3.8182627E-2,1.6009754E-2,3.6516838E-2,7.5071506E-2,6.687283E-2,-1.0765537E-1,1.0919827E-1,-6.989685E-2],"categories":[],"categories_nodes":[],"categories_segments":[],"categories_sizes":[],"default_left":[0,0,0,0,0,0,0,0,0,0,0,0,0,0,0,0,0,0,0,0,0,0,0,0,0,0,0,0,0,0,0,0,0,0,0,0,0,0,0,0,0,0,0,0,0,0,0,0,0,0,0,0,0,0,0,0,0,0,0,0,0,0,0,0,0,0,0,0,0,0,0,0,0,0,0,0,0,0,0,0,0,0,0,0,0,0,0,0,0,0,0,0,0,0,0,0,0,0,0,0,0,0,0,0,0,0,0,0,0,0,0,0,0,0,0,0,0,0,0,0,0,0,0,0,0,0,0],"id":7,"left_children":[1,3,5,7,9,11,13,15,17,19,21,23,25,27,29,31,33,35,37,39,41,43,45,47,49,51,53,55,57,59,61,63,65,67,69,71,73,75,77,79,81,83,85,87,89,91,93,95,97,99,101,103,105,107,109,111,113,115,117,119,121,123,125,-1,-1,-1,-1,-1,-1,-1,-1,-1,-1,-1,-1,-1,-1,-1,-1,-1,-1,-1,-1,-1,-1,-1,-1,-1,-1,-1,-1,-1,-1,-1,-1,-1,-1,-1,-1,-1,-1,-1,-1,-1,-1,-1,-1,-1,-1,-1,-1,-1,-1,-1,-1,-1,-1,-1,-1,-1,-1,-1,-1,-1,-1,-1,-1],"loss_changes":[2.6022942E3,4.2488757E2,8.525606E2,1.22473785E2,6.533276E1,1.5248047E2,1.8348854E2,4.6557648E1,6.216514E1,2.0487488E1,3.3723755E1,7.164288E1,2.4872559E1,1.2667449E2,5.629016E1,1.36029625E1,2.3950653E1,1.0462982E1,4.0527283E1,1.4227478E1,8.103424E0,2.4786377E1,9.959076E0,2.4217438E1,5.7208252E1,2.0257874E1,7.524597E0,2.4198967E1,8.984086E1,3.3545593E1,1.0170462E1,9.805198E0,9.632158E0,1.3599548E1,2.191957E1,8.852994E0,6.5696106E0,2.8688719E1,2.8130676E1,9.103973E0,9.187927E0,2.3371735E0,5.547577E0,1.5132324E1,1.4692368E1,1.1564762E1,7.3138733E0,1.6035881E1,5.918915E0,2.4997879E1,2.3901367E1,6.263794E0,1.0437256E1,8.68248E0,2.969345E0,1.0548542E1,1.0959427E1,1.8081161E1,7.520616E1,3.467105E1,1.2670937E1,8.564283E0,1.0305269E1,0E0,0E0,0E0,0E0,0E0,0E0,0E0,0E0,0E0,0E0,0E0,0E0,0E0,0E0,0E0,0E0,0E0,0E0,0E0,0E0,0E0,0E0,0E0,0E0,0E0,0E0,0E0,0E0,0E0,0E0,0E0,0E0,0E0,0E0,0E0,0E0,0E0,0E0,0E0,0E0,0E0,0E0,0E0,0E0,0E0,0E0,0E0,0E0,0E0,0E0,0E0,0E0,0E0,0E0,0E0,0E0,0E0,0E0,0E0,0E0,0E0,0E0,0E0,0E0],"parents":[2147483647,0,0,1,1,2,2,3,3,4,4,5,5,6,6,7,7,8,8,9,9,10,10,11,11,12,12,13,13,14,14,15,15,16,16,17,17,18,18,19,19,20,20,21,21,22,22,23,23,24,24,25,25,26,26,27,27,28,28,29,29,30,30,31,31,32,32,33,33,34,34,35,35,36,36,37,37,38,38,39,39,40,40,41,41,42,42,43,43,44,44,45,45,46,46,47,47,48,48,49,49,50,50,51,51,52,52,53,53,54,54,55,55,56,56,57,57,58,58,59,59,60,60,61,61,62,62],"right_children":[2,4,6,8,10,12,14,16,18,20,22,24,26,28,30,32,34,36,38,40,42,44,46,48,50,52,54,56,58,60,62,64,66,68,70,72,74,76,78,80,82,84,86,88,90,92,94,96,98,100,102,104,106,108,110,112,114,116,118,120,122,124,126,-1,-1,-1,-1,-1,-1,-1,-1,-1,-1,-1,-1,-1,-1,-1,-1,-1,-1,-1,-1,-1,-1,-1,-1,-1,-1,-1,-1,-1,-1,-1,-1,-1,-1,-1,-1,-1,-1,-1,-1,-1,-1,-1,-1,-1,-1,-1,-1,-1,-1,-1,-1,-1,-1,-1,-1,-1,-1,-1,-1,-1,-1,-1,-1],"split_conditions":[-3.442324E1,4E0,3.7349397E-1,-1.382226E2,-2.4981935E2,2.4977405E2,7.420313E1,-1.02E1,2E0,5E0,5E0,2E0,5E0,1E0,1.18E1,6.4285713E-1,-2.1773251E2,1.89E2,-2E-1,5.64729E1,-3.6847363E2,6.7112036E0,5.162826E1,1.4981123E3,1.2482896E2,2.5175352E0,3.6857266E2,1E0,2E0,2.1773251E2,6.5295074E1,7.7520775E1,6.3296535E1,1.06796116E-1,2.9E0,1.2E1,6.513742E1,2.02E3,5E-1,5.3156233E0,4.5512985E1,6.1800766E1,-1.2E0,6.2E0,-1.2253236E2,4.661828E0,8.6229315E0,2E0,2E0,7.2909035E1,5E0,1.33E1,3.3333333E0,1.3E0,4.863815E1,5E0,2.6774194E0,1.5012917E3,-4.4E0,3E-1,4.2857143E-1,7.0611115E1,-1.9E1,1.7122136E-2,9.525685E-2,-1.0829953E-1,1.8668266E-2,9.737735E-2,-6.7616485E-2,-3.4517072E-2,-6.4255916E-2,1.3169392E-2,8.34037E-2,3.7349593E-2,1.2879275E-1,-1.4818639E-2,1.2895389E-2,-1.897109E-2,-4.287692E-2,-7.266912E-2,5.6646677E-4,7.849794E-2,-9.9055074E-2,3.432878E-3,-1.2884723E-1,-7.2821535E-2,-1.0968565E-1,-4.850977E-2,-7.557103E-2,-4.8788574E-2,-1.9366175E-2,-7.595501E-2,-1.0295649E-2,-9.39577E-2,6.2779866E-2,-6.6111326E-2,5.9212048E-2,5.182699E-2,1.0348244E-1,3.835131E-2,1.3185652E-2,4.9499243E-2,7.8847945E-2,1.04247175E-1,-1.4797826E-2,9.959089E-2,6.49091E-2,1.12810336E-1,7.0962094E-2,6.3435747E-3,1.2781464E-1,-3.5696667E-2,4.70491E-2,-5.4101296E-2,-9.393694E-2,2.6254086E-2,7.09202E-2,2.1777848E-2,-6.501857E-3,3.8182627E-2,1.6009754E-2,3.6516838E-2,7.5071506E-2,6.687283E-2,-1.0765537E-1,1.0919827E-1,-6.989685E-2],"split_indices":[150,18,18,150,150,150,150,16,24,8,8,24,8,23,16,32,150,15,16,94,150,73,82,149,150,99,150,24,24,150,116,56,84,18,16,22,43,13,25,100,84,44,16,18,150,87,40,23,23,68,8,16,74,16,81,15,18,145,16,16,32,42,17,0,0,0,0,0,0,0,0,0,0,0,0,0,0,0,0,0,0,0,0,0,0,0,0,0,0,0,0,0,0,0,0,0,0,0,0,0,0,0,0,0,0,0,0,0,0,0,0,0,0,0,0,0,0,0,0,0,0,0,0,0,0,0,0],"split_type":[0,0,0,0,0,0,0,0,0,0,0,0,0,0,0,0,0,0,0,0,0,0,0,0,0,0,0,0,0,0,0,0,0,0,0,0,0,0,0,0,0,0,0,0,0,0,0,0,0,0,0,0,0,0,0,0,0,0,0,0,0,0,0,0,0,0,0,0,0,0,0,0,0,0,0,0,0,0,0,0,0,0,0,0,0,0,0,0,0,0,0,0,0,0,0,0,0,0,0,0,0,0,0,0,0,0,0,0,0,0,0,0,0,0,0,0,0,0,0,0,0,0,0,0,0,0,0],"sum_hessian":[2.5143541E4,9.802136E3,1.5341405E4,6.5004175E3,3.301718E3,5.369682E3,9.971723E3,2.0229772E3,4.4774404E3,1.2567563E3,2.0449618E3,3.9455942E3,1.4240879E3,6.67893E3,3.2927925E3,1.0027737E2,1.9226998E3,1.23079895E2,4.3543604E3,9.207285E2,3.3602783E2,1.5848668E3,4.600949E2,4.7799762E2,3.4675967E3,1.050488E3,3.7359982E2,3.56425E2,6.3225054E3,3.2004758E3,9.231678E1,7.785338E1,2.2423988E1,5.8859863E2,1.3341012E3,8.646578E1,3.6614113E1,2.2946868E3,2.0596738E3,6.138186E2,3.069099E2,1.4534096E2,1.9068689E2,8.514156E2,7.3345123E2,1.4580162E2,3.1429327E2,1.5286911E2,3.251285E2,1.7830007E3,1.684596E3,2.5833118E2,7.9215686E2,2.211991E2,1.5240074E2,6.2015636E1,2.9440936E2,3.6669385E2,5.9558115E3,2.8447815E3,3.556943E2,1.3912907E1,7.840388E1,5.59843E1,2.1869076E1,1.1247127E1,1.1176863E1,4.2025266E0,5.843961E2,1.00243994E3,3.3166125E2,6.190213E1,2.4563654E1,1.3170151E1,2.344396E1,1.8260093E3,4.6867752E2,1.241666E3,8.180078E2,5.963639E2,1.745473E1,2.2492495E0,3.0466068E2,1.2964048E0,1.4404456E2,8.251368E1,1.081732E2,3.9271664E2,4.5869894E2,4.6252698E2,2.709243E2,1.0996754E2,3.583408E1,3.119326E2,2.3606865E0,1.0178165E1,1.4269095E2,2.7319408E1,2.978091E2,1.1905814E3,5.924194E2,1.3291882E3,3.5540768E2,2.5407024E2,4.260938E0,1.0355644E2,6.8860046E2,1.2604429E2,9.5154816E1,2.1482005E0,1.5025253E2,3.7188423E1,2.4827213E1,1.7071437E2,1.2369499E2,1.7291966E2,1.9377417E2,1.1692427E3,4.786569E3,1.3020695E3,1.542712E3,1.5200955E2,2.0368475E2,1.1219809E1,2.6930978E0,2.4858577E0,7.5918015E1],"tree_param":{"num_deleted":"0","num_feature":"152","num_nodes":"127","size_leaf_vector":"1"}},{"base_weights":[-2.2067723E-3,-3.3473495E-1,2.5482544E-1,-1.6738948E-1,-5.709998E-1,6.12675E-1,1.3585606E-1,-3.4884846E-1,-7.957293E-2,-9.1497934E-1,-5.0624454E-1,5.370879E-1,9.379819E-1,6.4402126E-2,3.8875982E-1,-6.0652107E-1,-2.8889775E-1,4.4085124E-1,-1.1214601E-1,-8.2189125E-1,-1.1385406E0,-4.488105E-1,-7.156684E-1,9.94272E-1,5.043743E-1,8.550396E-1,1.1513084E0,-3.7418503E-1,9.812118E-2,4.0473896E-1,-2.2183113E-1,-6.6819556E-2,-6.579087E-1,-3.9766178E-1,-1.03174955E-1,8.4387136E-1,2.582273E-1,-1.8901476E-1,-1.2668646E-2,-7.250699E-1,-1.0410492E0,5.507445E-2,-1.1538253E0,-8.616561E-1,-4.204623E-1,-7.348129E-1,-1.8531442E-2,1.102204E0,6.900028E-1,3.117465E-1,5.754474E-1,-1.4469335E-2,8.8603175E-1,1.1718005E0,3.2104713E-1,-6.4406776E-1,-2.595858E-1,5.6935114E-1,8.221209E-2,3.4573105E-1,5.6822884E-1,-9.117156E-1,7.9421485E-3,4.511284E-2,-7.03158E-2,-6.954243E-2,1.9936139E-2,-2.0563198E-2,-4.8891347E-2,1.0269333E-2,-2.3643037E-2,9.735967E-2,-5.8363057E-3,6.7774065E-2,3.1357526E-3,-1.1661342E-2,-3.174054E-2,-6.8694274E-3,1.5352013E-2,-7.450659E-2,2.5405452E-2,-1.2491931E-1,-8.921688E-2,-9.17888E-2,1.2436124E-1,-1.20476715E-1,-6.952229E-2,-8.9567095E-2,7.0257895E-2,-3.2898694E-2,-5.3197302E-2,-6.085648E-2,-8.293458E-2,1.2918738E-1,-3.395374E-2,2.6395246E-2,1.12740934E-1,-2.3266971E-2,8.20998E-2,3.584513E-2,-7.9584075E-3,5.1922787E-2,7.658581E-2,1.1629059E-1,-4.9292646E-2,9.6925214E-2,7.31658E-2,1.1808552E-1,5.108719E-3,9.0899445E-2,-1.0256492E-1,-9.247544E-2,-4.4056803E-2,-3.167744E-2,5.609208E-2,6.140721E-2,-4.1129302E-2,6.3667836E-4,1.5939577E-2,9.114219E-2,3.2760996E-2,6.8566166E-2,3.0249929E-2,5.8847286E-2,-1.1856925E-1,1.835347E-2,-1.1935715E-1],"categories":[],"categories_nodes":[],"categories_segments":[],"categories_sizes":[],"default_left":[0,0,0,0,0,0,0,0,0,0,0,0,0,0,0,0,0,0,0,0,0,0,0,0,0,0,0,0,0,0,0,0,0,0,0,0,0,0,0,0,0,0,0,0,0,0,0,0,0,0,0,0,0,0,0,0,0,0,0,0,0,0,0,0,0,0,0,0,0,0,0,0,0,0,0,0,0,0,0,0,0,0,0,0,0,0,0,0,0,0,0,0,0,0,0,0,0,0,0,0,0,0,0,0,0,0,0,0,0,0,0,0,0,0,0,0,0,0,0,0,0,0,0,0,0,0,0],"id":8,"left_children":[1,3,5,7,9,11,13,15,17,19,21,23,25,27,29,31,33,35,37,39,41,43,45,47,49,51,53,55,57,59,61,63,65,67,69,71,73,75,77,79,81,83,85,87,89,91,93,95,97,99,101,103,105,107,109,111,113,115,117,119,121,123,125,-1,-1,-1,-1,-1,-1,-1,-1,-1,-1,-1,-1,-1,-1,-1,-1,-1,-1,-1,-1,-1,-1,-1,-1,-1,-1,-1,-1,-1,-1,-1,-1,-1,-1,-1,-1,-1,-1,-1,-1,-1,-1,-1,-1,-1,-1,-1,-1,-1,-1,-1,-1,-1,-1,-1,-1,-1,-1,-1,-1,-1,-1,-1,-1],"loss_changes":[2.1357568E3,4.306372E2,5.9994507E2,1.01616516E2,1.00140625E2,8.5957886E1,1.9114384E2,3.195459E1,7.293756E1,1.39296875E1,4.5424377E1,4.220764E1,1.0722473E1,1.22037125E2,2.2825317E1,1.08186035E1,3.4081665E1,1.8437649E1,3.0945755E1,1.0022766E1,3.84729E0,3.460016E1,1.088855E1,5.4679413E0,3.633319E1,1.2955841E1,2.7261505E0,1.8054642E1,5.7389343E1,2.1713928E1,9.529846E0,1.1906831E1,1.1636383E1,1.8561493E1,1.7176708E1,9.256294E0,1.671708E1,2.1184929E1,1.6446568E1,7.15094E0,3.6372528E0,5.277551E0,3.9474182E0,1.0791611E1,2.835962E1,8.983368E0,1.0054111E1,2.6249847E0,6.5165043E0,1.3206039E1,2.0444458E1,1.0439313E1,5.249054E0,1.7416687E0,5.500514E0,9.584595E0,1.9661823E1,1.1218071E1,4.3390976E1,1.6834747E1,1.8540009E1,6.870268E0,9.935681E0,0E0,0E0,0E0,0E0,0E0,0E0,0E0,0E0,0E0,0E0,0E0,0E0,0E0,0E0,0E0,0E0,0E0,0E0,0E0,0E0,0E0,0E0,0E0,0E0,0E0,0E0,0E0,0E0,0E0,0E0,0E0,0E0,0E0,0E0,0E0,0E0,0E0,0E0,0E0,0E0,0E0,0E0,0E0,0E0,0E0,0E0,0E0,0E0,0E0,0E0,0E0,0E0,0E0,0E0,0E0,0E0,0E0,0E0,0E0,0E0,0E0,0E0,0E0,0E0],"parents":[2147483647,0,0,1,1,2,2,3,3,4,4,5,5,6,6,7,7,8,8,9,9,10,10,11,11,12,12,13,13,14,14,15,15,16,16,17,17,18,18,19,19,20,20,21,21,22,22,23,23,24,24,25,25,26,26,27,27,28,28,29,29,30,30,31,31,32,32,33,33,34,34,35,35,36,36,37,37,38,38,39,39,40,40,41,41,42,42,43,43,44,44,45,45,46,46,47,47,48,48,49,49,50,50,51,51,52,52,53,53,54,54,55,55,56,56,57,57,58,58,59,59,60,60,61,61,62,62],"right_children":[2,4,6,8,10,12,14,16,18,20,22,24,26,28,30,32,34,36,38,40,42,44,46,48,50,52,54,56,58,60,62,64,66,68,70,72,74,76,78,80,82,84,86,88,90,92,94,96,98,100,102,104,106,108,110,112,114,116,118,120,122,124,126,-1,-1,-1,-1,-1,-1,-1,-1,-1,-1,-1,-1,-1,-1,-1,-1,-1,-1,-1,-1,-1,-1,-1,-1,-1,-1,-1,-1,-1,-1,-1,-1,-1,-1,-1,-1,-1,-1,-1,-1,-1,-1,-1,-1,-1,-1,-1,-1,-1,-1,-1,-1,-1,-1,-1,-1,-1,-1,-1,-1,-1,-1,-1,-1],"split_conditions":[-1.9266693E1,2.84E0,2.5E-1,-1.13133545E2,-3.2487854E2,3.2504623E2,1.2740278E2,-2.1773251E2,3E0,5E0,5E0,1E0,5E0,-1E2,3.6E1,4.8449112E1,1.3E2,3.448276E-1,7.111253E1,5.76326E1,3.3333333E0,3.961441E1,2.27E2,1.7857143E-1,9.573882E1,5.1790764E1,5.850367E0,6.161905E1,1E0,2.1773251E2,5.9406662E1,6.9481926E1,1.8168056E1,2.9665635E0,2.57E1,6.699134E1,1.18E2,4.1385317E0,6.666667E-1,1.7622107E3,-4.8541275E2,6.220211E0,1.2342242E1,8.523785E1,5.6E0,2.53E1,5.9562088E1,1.4778678E3,2.0397067E0,6.745029E1,5E0,2.6086956E-1,2.82E1,2.3076923E-1,1.518241E3,-2.71E2,6.705202E1,6.6E-1,1.02E2,2.0735927E0,3.9348826E0,4.439336E1,4.6957426E0,4.511284E-2,-7.03158E-2,-6.954243E-2,1.9936139E-2,-2.0563198E-2,-4.8891347E-2,1.0269333E-2,-2.3643037E-2,9.735967E-2,-5.8363057E-3,6.7774065E-2,3.1357526E-3,-1.1661342E-2,-3.174054E-2,-6.8694274E-3,1.5352013E-2,-7.450659E-2,2.5405452E-2,-1.2491931E-1,-8.921688E-2,-9.17888E-2,1.2436124E-1,-1.20476715E-1,-6.952229E-2,-8.9567095E-2,7.0257895E-2,-3.2898694E-2,-5.3197302E-2,-6.085648E-2,-8.293458E-2,1.2918738E-1,-3.395374E-2,2.6395246E-2,1.12740934E-1,-2.3266971E-2,8.20998E-2,3.584513E-2,-7.9584075E-3,5.1922787E-2,7.658581E-2,1.1629059E-1,-4.9292646E-2,9.6925214E-2,7.31658E-2,1.1808552E-1,5.108719E-3,9.0899445E-2,-1.0256492E-1,-9.247544E-2,-4.4056803E-2,-3.167744E-2,5.609208E-2,6.140721E-2,-4.1129302E-2,6.3667836E-4,1.5939577E-2,9.114219E-2,3.2760996E-2,6.8566166E-2,3.0249929E-2,5.8847286E-2,-1.1856925E-1,1.835347E-2,-1.1935715E-1],"split_indices":[150,18,18,150,150,150,150,150,24,8,8,24,8,15,4,82,1,18,67,94,18,57,1,18,150,83,63,43,24,150,101,115,110,51,4,48,11,39,28,148,150,61,110,44,18,4,90,145,63,54,8,32,4,18,149,15,77,35,14,74,63,46,136,0,0,0,0,0,0,0,0,0,0,0,0,0,0,0,0,0,0,0,0,0,0,0,0,0,0,0,0,0,0,0,0,0,0,0,0,0,0,0,0,0,0,0,0,0,0,0,0,0,0,0,0,0,0,0,0,0,0,0,0,0,0,0,0],"split_type":[0,0,0,0,0,0,0,0,0,0,0,0,0,0,0,0,0,0,0,0,0,0,0,0,0,0,0,0,0,0,0,0,0,0,0,0,0,0,0,0,0,0,0,0,0,0,0,0,0,0,0,0,0,0,0,0,0,0,0,0,0,0,0,0,0,0,0,0,0,0,0,0,0,0,0,0,0,0,0,0,0,0,0,0,0,0,0,0,0,0,0,0,0,0,0,0,0,0,0,0,0,0,0,0,0,0,0,0,0,0,0,0,0,0,0,0,0,0,0,0,0,0,0,0,0,0,0],"sum_hessian":[2.4986244E4,1.08931875E4,1.4093057E4,6.377639E3,4.515549E3,3.5152727E3,1.0577784E4,2.078916E3,4.298723E3,7.133119E2,3.8022368E3,2.8546318E3,6.6064075E2,8.248544E3,2.3292405E3,3.9066998E2,1.6882461E3,2.5246846E2,4.0462546E3,5.0691525E2,2.0639665E2,2.9863733E3,8.1586346E2,1.8865903E2,2.665973E3,4.792963E2,1.8134445E2,5.8816223E2,7.6603813E3,2.2701672E3,5.9073074E1,3.416372E1,3.5650626E2,1.0639995E3,6.242466E2,7.759926E1,1.748692E2,2.2819963E3,1.7642583E3,3.5457614E2,1.5233908E2,2.5766554E0,2.0381999E2,1.8999574E2,2.7963777E3,7.9400476E2,2.1858717E1,1.373242E2,5.1334827E1,7.1998865E2,1.9459843E3,1.6514067E1,4.6278223E2,1.7657497E2,4.76949E0,1.7393137E2,4.1423083E2,2.4903827E2,7.4113433E3,1.6703921E3,5.997752E2,1.4017682E1,4.505539E1,1.899433E1,1.5169389E1,3.4173996E2,1.4766311E1,3.4378745E2,7.2021204E2,2.4538184E2,3.7886475E2,6.7775276E1,9.823981E0,6.067866E1,1.1419054E2,1.4603768E3,8.2161957E2,1.3198848E3,4.4437347E2,3.4771408E2,6.8620877E0,6.0444073E1,9.189501E1,1.542032E0,1.0346234E0,1.8197868E2,2.1841307E1,1.8637047E2,3.625282E0,1.5383641E3,1.2580134E3,3.431574E2,4.5084735E2,3.7059398E0,1.8152779E1,4.3435435E0,1.3298065E2,6.2856073E0,4.504922E1,6.4329614E2,7.669255E1,1.5052732E3,4.4071097E2,4.3584266E0,1.215564E1,2.9725714E2,1.6552509E2,1.7510654E2,1.4684176E0,3.5462637E0,1.2232263E0,7.1612366E1,1.02319E2,3.8781442E2,2.6416407E1,2.3853406E2,1.05042095E1,3.7386265E3,3.6727168E3,5.0317608E1,1.6200745E3,4.1485825E2,1.8491698E2,1.9874266E0,1.2030255E1,4.0049667E1,5.005723E0],"tree_param":{"num_deleted":"0","num_feature":"152","num_nodes":"127","size_leaf_vector":"1"}},{"base_weights":[8.1515586E-4,-2.1441406E-1,3.6213037E-1,-4.3436638E-1,-4.66421E-2,2.8185934E-1,6.9631946E-1,-6.9187444E-1,-3.4117085E-1,1.6804007E-1,-9.320168E-2,8.2989925E-1,2.6424325E-1,6.2452173E-1,9.5522285E-1,-9.310946E-1,-6.083234E-1,-9.013101E-1,-3.222677E-1,-1.4560042E-1,2.9228887E-1,-3.3460152E-1,-4.6276286E-2,4.3987578E-1,9.1700363E-1,-4.302727E-2,2.9944682E-1,5.540268E-1,8.332826E-1,9.6803194E-1,-6.8898934E-1,-9.568426E-1,-3.1875113E-1,-5.3889185E-1,-8.2422525E-1,-9.577824E-1,-1.11195154E-1,7.985204E-3,-3.4680265E-1,2.9215676E-1,-3.1178826E-1,3.8735378E-1,1.2289615E-2,-7.444543E-1,-2.7075332E-1,1.1023744E-2,-2.5996712E-1,7.534409E-1,-2.8626576E-2,-7.1088976E-1,9.417697E-1,-4.680255E-1,4.484365E-2,3.6085248E-1,1.6124023E-1,7.760728E-1,4.999495E-1,2.1515812E-1,8.828583E-1,9.9127865E-1,3.4042558E-1,3.7464596E-2,-1.527738E-1,-1.01752676E-1,-6.99985E-2,9.047623E-2,-8.4913366E-2,-5.9891637E-2,-3.0298028E-2,-1.0604589E-2,-8.543892E-2,-6.098883E-3,-1.0002508E-1,-4.8700493E-2,1.5711237E-1,5.64256E-2,-8.148729E-3,-2.947933E-2,-5.132987E-2,1.09822825E-1,1.8418217E-2,-1.07035816E-1,-2.3667855E-2,9.293466E-2,3.3526413E-2,-1.5851893E-2,3.1243054E-2,-3.8685627E-2,-9.361129E-2,-3.7430137E-2,-3.0382423E-4,-2.6328376E-2,4.7188574E-3,-4.3672815E-2,-1.9891646E-2,-2.0784372E-2,1.08594194E-1,-8.423367E-2,5.6975063E-2,3.4344196E-2,-1.3870022E-1,-1.0985276E-2,9.673058E-2,-6.1723E-2,3.7305724E-2,2.4039477E-2,-9.100717E-3,2.8326107E-2,5.1788457E-2,2.5434842E-2,7.874095E-4,-1.8120426E-3,8.42002E-2,3.5152193E-2,6.028011E-2,-4.6715956E-2,6.60296E-2,-7.182484E-2,8.97335E-2,-6.8381816E-2,9.980391E-2,-6.4586036E-2,9.866783E-2],"categories":[],"categories_nodes":[],"categories_segments":[],"categories_sizes":[],"default_left":[0,0,0,0,0,0,0,0,0,0,0,0,0,0,0,0,0,0,0,0,0,0,0,0,0,0,0,0,0,0,0,0,0,0,0,0,0,0,0,0,0,0,0,0,0,0,0,0,0,0,0,0,0,0,0,0,0,0,0,0,0,0,0,0,0,0,0,0,0,0,0,0,0,0,0,0,0,0,0,0,0,0,0,0,0,0,0,0,0,0,0,0,0,0,0,0,0,0,0,0,0,0,0,0,0,0,0,0,0,0,0,0,0,0,0,0,0,0,0,0,0,0,0],"id":9,"left_children":[1,3,5,7,9,11,13,15,17,19,21,23,25,27,29,31,33,35,37,39,41,43,45,47,49,51,53,55,57,59,61,63,65,67,69,71,73,75,77,79,81,83,85,87,89,91,93,95,97,99,101,103,105,107,109,111,113,115,117,119,121,-1,-1,-1,-1,-1,-1,-1,-1,-1,-1,-1,-1,-1,-1,-1,-1,-1,-1,-1,-1,-1,-1,-1,-1,-1,-1,-1,-1,-1,-1,-1,-1,-1,-1,-1,-1,-1,-1,-1,-1,-1,-1,-1,-1,-1,-1,-1,-1,-1,-1,-1,-1,-1,-1,-1,-1,-1,-1,-1,-1,-1,-1],"loss_changes":[1.9237274E3,5.720609E2,2.4753198E2,1.6074841E2,8.793321E1,7.168494E1,3.2637512E1,3.504303E1,5.1883423E1,6.1145226E1,8.18701E1,7.460663E0,7.808353E1,2.0179749E1,8.802124E0,6.9365845E0,1.9393066E1,7.0461426E0,3.863788E1,3.250619E1,2.9897873E1,3.0581009E1,7.412381E1,6.5120173E0,8.261078E0,2.77595E1,5.4898315E1,1.223819E1,1.0599335E1,5.2606506E0,3.7573714E0,6.1502686E0,1.3768248E1,1.4038544E1,6.8442383E0,5.6319275E0,8.240954E0,1.6505909E1,3.8282654E1,1.0513824E1,1.8175282E1,2.3364616E1,1.4700081E1,1.0465363E1,2.8256577E1,4.737581E1,1.3726219E1,8.696964E0,9.574091E0,2.8940678E0,5.0986786E0,1.6211422E1,1.6397486E1,5.4472717E1,2.8469734E1,1.0703201E1,1.2739609E1,8.649993E0,8.192001E0,4.866577E0,1.03433075E1,0E0,0E0,0E0,0E0,0E0,0E0,0E0,0E0,0E0,0E0,0E0,0E0,0E0,0E0,0E0,0E0,0E0,0E0,0E0,0E0,0E0,0E0,0E0,0E0,0E0,0E0,0E0,0E0,0E0,0E0,0E0,0E0,0E0,0E0,0E0,0E0,0E0,0E0,0E0,0E0,0E0,0E0,0E0,0E0,0E0,0E0,0E0,0E0,0E0,0E0,0E0,0E0,0E0,0E0,0E0,0E0,0E0,0E0,0E0,0E0,0E0,0E0],"parents":[2147483647,0,0,1,1,2,2,3,3,4,4,5,5,6,6,7,7,8,8,9,9,10,10,11,11,12,12,13,13,14,14,15,15,16,16,17,17,18,18,19,19,20,20,21,21,22,22,23,23,24,24,25,25,26,26,27,27,28,28,29,29,30,30,31,31,32,32,33,33,34,34,35,35,36,36,37,37,38,38,39,39,40,40,41,41,42,42,43,43,44,44,45,45,46,46,47,47,48,48,49,49,50,50,51,51,52,52,53,53,54,54,55,55,56,56,57,57,58,58,59,59,60,60],"right_children":[2,4,6,8,10,12,14,16,18,20,22,24,26,28,30,32,34,36,38,40,42,44,46,48,50,52,54,56,58,60,62,64,66,68,70,72,74,76,78,80,82,84,86,88,90,92,94,96,98,100,102,104,106,108,110,112,114,116,118,120,122,-1,-1,-1,-1,-1,-1,-1,-1,-1,-1,-1,-1,-1,-1,-1,-1,-1,-1,-1,-1,-1,-1,-1,-1,-1,-1,-1,-1,-1,-1,-1,-1,-1,-1,-1,-1,-1,-1,-1,-1,-1,-1,-1,-1,-1,-1,-1,-1,-1,-1,-1,-1,-1,-1,-1,-1,-1,-1,-1,-1,-1,-1],"split_conditions":[5.0440884E1,-9.9210556E1,2.5939667E2,-2.595147E2,8E0,1E0,4.173882E2,-3.989459E2,1E0,3E0,1E1,5.5196976E1,1.5009318E3,5E0,6.0797663E0,1.7308005E3,5E0,6.72165E0,1.5001528E3,1E0,8.179992E0,1E0,4.4E0,4.840351E0,6.944444E-1,3E0,3E0,6.519402E1,4.8979095E1,1.7601885E3,5.128205E1,3.6932936E0,5.488095E1,4.2537417E0,1.3E1,2E0,2.019E3,3E0,3.7E0,2.9375E-1,-6.69E2,2.1929824E-1,6.1904762E1,4.603356E1,1.9E2,-1.13133545E2,4.9663254E1,6.90128E1,2.28E1,5.78E2,1E0,9.823773E0,-1.4E0,1.4377829E2,1.7E2,5.0281696E1,2.4977405E2,7.264172E1,4E1,4E0,3.304066E0,3.7464596E-2,-1.527738E-1,-1.01752676E-1,-6.99985E-2,9.047623E-2,-8.4913366E-2,-5.9891637E-2,-3.0298028E-2,-1.0604589E-2,-8.543892E-2,-6.098883E-3,-1.0002508E-1,-4.8700493E-2,1.5711237E-1,5.64256E-2,-8.148729E-3,-2.947933E-2,-5.132987E-2,1.09822825E-1,1.8418217E-2,-1.07035816E-1,-2.3667855E-2,9.293466E-2,3.3526413E-2,-1.5851893E-2,3.1243054E-2,-3.8685627E-2,-9.361129E-2,-3.7430137E-2,-3.0382423E-4,-2.6328376E-2,4.7188574E-3,-4.3672815E-2,-1.9891646E-2,-2.0784372E-2,1.08594194E-1,-8.423367E-2,5.6975063E-2,3.4344196E-2,-1.3870022E-1,-1.0985276E-2,9.673058E-2,-6.1723E-2,3.7305724E-2,2.4039477E-2,-9.100717E-3,2.8326107E-2,5.1788457E-2,2.5434842E-2,7.874095E-4,-1.8120426E-3,8.42002E-2,3.5152193E-2,6.028011E-2,-4.6715956E-2,6.60296E-2,-7.182484E-2,8.97335E-2,-6.8381816E-2,9.980391E-2,-6.4586036E-2,9.866783E-2],"split_indices":[147,147,147,147,24,24,147,147,23,23,23,41,148,8,63,148,8,51,149,24,74,23,16,63,37,23,16,68,150,146,45,64,71,64,24,24,13,24,16,18,14,18,108,46,3,150,117,67,7,14,23,49,16,150,1,105,150,43,57,23,64,0,0,0,0,0,0,0,0,0,0,0,0,0,0,0,0,0,0,0,0,0,0,0,0,0,0,0,0,0,0,0,0,0,0,0,0,0,0,0,0,0,0,0,0,0,0,0,0,0,0,0,0,0,0,0,0,0,0,0,0,0,0],"split_type":[0,0,0,0,0,0,0,0,0,0,0,0,0,0,0,0,0,0,0,0,0,0,0,0,0,0,0,0,0,0,0,0,0,0,0,0,0,0,0,0,0,0,0,0,0,0,0,0,0,0,0,0,0,0,0,0,0,0,0,0,0,0,0,0,0,0,0,0,0,0,0,0,0,0,0,0,0,0,0,0,0,0,0,0,0,0,0,0,0,0,0,0,0,0,0,0,0,0,0,0,0,0,0,0,0,0,0,0,0,0,0,0,0,0,0,0,0,0,0,0,0,0,0],"sum_hessian":[2.4735518E4,1.5501782E4,9.233736E3,6.7070796E3,8.794702E3,7.446868E3,1.7868678E3,1.7806241E3,4.9264556E3,1.5669631E3,7.2277393E3,2.3048044E2,7.2163877E3,1.4015967E3,3.8527115E2,4.5829803E2,1.3223262E3,1.5930284E2,4.767153E3,4.4456885E2,1.1223943E3,1.1753284E3,6.0524106E3,4.318096E1,1.8729947E2,7.4176404E2,6.474624E3,1.0505111E3,3.5108557E2,3.82701E2,2.5701485E0,4.392651E2,1.903295E1,1.00320355E3,3.1912256E2,1.4847836E2,1.0824474E1,3.297137E2,4.437439E3,1.2212365E2,3.224452E2,8.3762256E2,2.8477173E2,1.5698085E2,1.0183476E3,4.7733984E3,1.2790123E3,2.550348E1,1.7677479E1,2.3916311E0,1.8490784E2,1.2634672E2,6.154173E2,4.4817544E3,1.9928695E3,2.031222E2,8.473889E2,2.6464045E1,3.2462152E2,3.684732E2,1.4227805E1,1.3771201E0,1.1930285E0,3.5292343E2,8.6341644E1,5.5421553E0,1.3490794E1,7.98498E2,2.0470558E2,1.3045075E1,3.0607748E2,6.82355E0,1.4165482E2,9.428726E0,1.3957481E0,4.4949013E1,2.847647E2,3.383337E3,1.0541019E3,1.3342869E1,1.0878078E2,2.7856651E1,2.9458853E2,7.196683E1,7.6565576E2,1.8178865E2,1.0298307E2,5.5830437E1,1.01150406E2,7.3403577E2,2.843118E2,5.552895E2,4.218109E3,3.2676648E2,9.5224585E2,6.650708E0,1.8852774E1,7.3181314E0,1.0359348E1,1.1266944E0,1.2649366E0,4.305308E0,1.8060254E2,1.0753637E2,1.8810345E1,2.5196112E2,3.634562E2,3.0014873E3,1.4802671E3,1.239633E3,7.5323645E2,1.5625098E1,1.874971E2,3.4865457E2,4.9873434E2,1.0428905E1,1.6035141E1,2.4732037E0,3.2214832E2,1.0785577E0,3.6739462E2,5.6324244E0,8.595381E0],"tree_param":{"num_deleted":"0","num_feature":"152","num_nodes":"123","size_leaf_vector":"1"}},{"base_weights":[-4.2336065E-4,-2.628449E-1,2.4467054E-1,-5.0018686E-1,-1.3804659E-1,5.6956613E-1,1.5731606E-1,-7.978152E-1,-4.314215E-1,-6.754409E-1,-1.202161E-1,4.9225244E-1,8.5706586E-1,8.035618E-2,3.22416E-1,-7.2030276E-1,-1.0457307E0,-9.949126E-1,-4.1351172E-1,-7.396786E-1,-1.1659755E-1,-2.2090185E-1,-3.0226126E-2,9.623633E-1,4.6091318E-1,-1.6403527E-3,8.763559E-1,5.542594E-1,6.361647E-2,2.366758E-1,4.5238248E-1,-1.8692757E-1,-7.5637335E-1,-1.0988153E0,-1.4768428E-1,-1.0520165E0,1.12158604E-1,-4.6312857E-1,-2.518293E-1,-2.8951287E-1,-8.2434833E-1,-7.729092E-1,2.8420654E-1,5.3162795E-1,-2.3288941E-1,6.479173E-4,-3.0793676E-1,8.285865E-3,1.0054419E0,1.1953396E-1,5.028216E-1,-9.7813517E-1,7.6262724E-1,9.025706E-1,2.3068836E-1,6.248082E-1,-3.3008832E-1,-3.0716023E-1,8.964104E-2,2.439767E-1,-1.6053635E0,5.0753564E-1,1.6407314E-1,6.4901546E-2,-4.092789E-2,-7.824164E-2,-1.9991841E-2,-1.1211147E-1,-4.521352E-2,-9.374406E-2,6.609049E-2,-1.1236043E-1,-1.4146927E-2,-6.3842885E-2,1.1676528E-1,-4.13859E-2,-6.497138E-2,2.4519593E-2,-2.8232828E-2,-5.6682743E-2,4.960673E-2,-9.248875E-2,-3.2783777E-2,5.9899937E-2,-1.04972795E-1,1.14678204E-1,-2.417192E-2,1.2924147E-1,2.9042337E-2,-2.3765115E-2,1.1538216E-1,-2.451777E-3,2.3928111E-2,-5.382177E-2,-1.0583341E-2,6.809239E-2,-9.532155E-2,1.1345088E-2,1.0344627E-1,7.5683154E-2,3.928622E-3,4.6477135E-2,7.645778E-2,-1.6624823E-1,2.9983526E-2,1.2043317E-1,-4.5946624E-2,7.544949E-2,9.8435156E-2,-4.369992E-2,6.9433585E-2,7.330112E-2,9.52817E-3,-7.281361E-2,6.9477506E-2,-6.88247E-3,-4.3825027E-2,2.8266257E-2,5.031379E-3,1.9737126E-2,5.138219E-2,-1.9216889E-1,5.908428E-3,6.0585637E-2,3.7946675E-2,2.3534115E-2,-8.640312E-2],"categories":[],"categories_nodes":[],"categories_segments":[],"categories_sizes":[],"default_left":[0,0,0,0,0,0,0,0,0,0,0,0,0,0,0,0,0,0,0,0,0,0,0,0,0,0,0,0,0,0,0,0,0,0,0,0,0,0,0,0,0,0,0,0,0,0,0,0,0,0,0,0,0,0,0,0,0,0,0,0,0,0,0,0,0,0,0,0,0,0,0,0,0,0,0,0,0,0,0,0,0,0,0,0,0,0,0,0,0,0,0,0,0,0,0,0,0,0,0,0,0,0,0,0,0,0,0,0,0,0,0,0,0,0,0,0,0,0,0,0,0,0,0,0,0,0,0],"id":10,"left_children":[1,3,5,7,9,11,13,15,17,19,21,23,25,27,29,31,33,35,37,39,41,43,45,47,49,51,53,55,57,59,61,63,65,67,69,71,73,75,77,79,81,83,85,87,89,91,93,95,97,99,101,103,105,107,109,111,113,115,117,119,121,123,125,-1,-1,-1,-1,-1,-1,-1,-1,-1,-1,-1,-1,-1,-1,-1,-1,-1,-1,-1,-1,-1,-1,-1,-1,-1,-1,-1,-1,-1,-1,-1,-1,-1,-1,-1,-1,-1,-1,-1,-1,-1,-1,-1,-1,-1,-1,-1,-1,-1,-1,-1,-1,-1,-1,-1,-1,-1,-1,-1,-1,-1,-1,-1,-1],"loss_changes":[1.5739783E3,3.4998346E2,3.590357E2,8.300189E1,7.414914E1,5.916815E1,1.2670181E2,1.3911316E1,3.2995117E1,8.836983E0,6.794214E1,3.0717896E1,9.390228E0,5.394155E1,3.522525E1,1.1105194E1,8.397354E0,6.5193176E0,2.5634033E1,8.251633E0,7.273023E0,3.2050507E1,3.3963158E1,5.386833E0,2.833612E1,1.0784563E1,9.174744E0,1.4681351E1,6.3453087E1,2.6112E1,1.9939667E1,7.39513E0,7.773651E0,1.9356232E0,7.756679E0,6.1239624E0,5.396273E0,2.2299744E1,1.1528362E1,8.299297E0,9.028954E0,4.5917444E0,8.160897E0,9.863918E0,2.3281937E1,2.1419914E1,1.8387768E1,4.9688454E0,3.133667E0,1.1136093E1,1.7248688E1,6.0465155E0,4.929764E0,5.704315E0,7.4150333E0,1.226123E1,7.765501E0,1.3445957E1,4.6615387E1,2.3866585E1,4.1582565E0,1.3073761E1,1.5127305E1,0E0,0E0,0E0,0E0,0E0,0E0,0E0,0E0,0E0,0E0,0E0,0E0,0E0,0E0,0E0,0E0,0E0,0E0,0E0,0E0,0E0,0E0,0E0,0E0,0E0,0E0,0E0,0E0,0E0,0E0,0E0,0E0,0E0,0E0,0E0,0E0,0E0,0E0,0E0,0E0,0E0,0E0,0E0,0E0,0E0,0E0,0E0,0E0,0E0,0E0,0E0,0E0,0E0,0E0,0E0,0E0,0E0,0E0,0E0,0E0,0E0,0E0,0E0,0E0],"parents":[2147483647,0,0,1,1,2,2,3,3,4,4,5,5,6,6,7,7,8,8,9,9,10,10,11,11,12,12,13,13,14,14,15,15,16,16,17,17,18,18,19,19,20,20,21,21,22,22,23,23,24,24,25,25,26,26,27,27,28,28,29,29,30,30,31,31,32,32,33,33,34,34,35,35,36,36,37,37,38,38,39,39,40,40,41,41,42,42,43,43,44,44,45,45,46,46,47,47,48,48,49,49,50,50,51,51,52,52,53,53,54,54,55,55,56,56,57,57,58,58,59,59,60,60,61,61,62,62],"right_children":[2,4,6,8,10,12,14,16,18,20,22,24,26,28,30,32,34,36,38,40,42,44,46,48,50,52,54,56,58,60,62,64,66,68,70,72,74,76,78,80,82,84,86,88,90,92,94,96,98,100,102,104,106,108,110,112,114,116,118,120,122,124,126,-1,-1,-1,-1,-1,-1,-1,-1,-1,-1,-1,-1,-1,-1,-1,-1,-1,-1,-1,-1,-1,-1,-1,-1,-1,-1,-1,-1,-1,-1,-1,-1,-1,-1,-1,-1,-1,-1,-1,-1,-1,-1,-1,-1,-1,-1,-1,-1,-1,-1,-1,-1,-1,-1,-1,-1,-1,-1,-1,-1,-1,-1,-1,-1],"split_conditions":[-6.067232E0,-1.6293385E2,1.904762E-1,-3.132869E2,1E0,3.666069E2,1.0862926E2,3E1,1E0,5.8919115E0,-5.849575E1,1E0,1.5604719E3,1E0,5E-1,2.09E1,5.423548E1,-3.5E1,-1.0629041E2,6.42009E1,5.6820988E1,4.5701935E1,3.7391305E0,4.5341873E1,1.927239E1,7.318824E0,1.7432941E3,2.127907E0,3E0,8.941176E0,2.91E2,5.9178528E1,5.8845434E0,1.22E3,-1E0,6.142515E0,1E0,5E0,6E0,5.7111835E0,-2.6952497E1,3.9102203E1,5.972325E1,1.51E2,2.4002811E1,4.6E1,6.666667E-1,4.4600277E1,6.407056E1,4.292857E1,1E0,6.1349205E1,8.49981E0,3.531338E2,5.8267384E1,5.216432E0,5.734127E1,1.4990812E3,2.26E1,2.4977405E2,1.3404558E1,7.5445094E0,1.7737629E1,6.4901546E-2,-4.092789E-2,-7.824164E-2,-1.9991841E-2,-1.1211147E-1,-4.521352E-2,-9.374406E-2,6.609049E-2,-1.1236043E-1,-1.4146927E-2,-6.3842885E-2,1.1676528E-1,-4.13859E-2,-6.497138E-2,2.4519593E-2,-2.8232828E-2,-5.6682743E-2,4.960673E-2,-9.248875E-2,-3.2783777E-2,5.9899937E-2,-1.04972795E-1,1.14678204E-1,-2.417192E-2,1.2924147E-1,2.9042337E-2,-2.3765115E-2,1.1538216E-1,-2.451777E-3,2.3928111E-2,-5.382177E-2,-1.0583341E-2,6.809239E-2,-9.532155E-2,1.1345088E-2,1.0344627E-1,7.5683154E-2,3.928622E-3,4.6477135E-2,7.645778E-2,-1.6624823E-1,2.9983526E-2,1.2043317E-1,-4.5946624E-2,7.544949E-2,9.8435156E-2,-4.369992E-2,6.9433585E-2,7.330112E-2,9.52817E-3,-7.281361E-2,6.9477506E-2,-6.88247E-3,-4.3825027E-2,2.8266257E-2,5.031379E-3,1.9737126E-2,5.138219E-2,-1.9216889E-1,5.908428E-3,6.0585637E-2,3.7946675E-2,2.3534115E-2,-8.640312E-2],"split_indices":[147,147,18,150,23,147,150,18,23,87,150,24,148,24,26,4,105,15,150,56,144,118,18,81,150,49,149,18,23,18,1,90,52,10,17,64,17,8,24,110,147,46,120,12,85,15,26,45,67,60,26,71,38,150,93,100,48,148,4,150,62,50,50,0,0,0,0,0,0,0,0,0,0,0,0,0,0,0,0,0,0,0,0,0,0,0,0,0,0,0,0,0,0,0,0,0,0,0,0,0,0,0,0,0,0,0,0,0,0,0,0,0,0,0,0,0,0,0,0,0,0,0,0,0,0,0,0],"split_type":[0,0,0,0,0,0,0,0,0,0,0,0,0,0,0,0,0,0,0,0,0,0,0,0,0,0,0,0,0,0,0,0,0,0,0,0,0,0,0,0,0,0,0,0,0,0,0,0,0,0,0,0,0,0,0,0,0,0,0,0,0,0,0,0,0,0,0,0,0,0,0,0,0,0,0,0,0,0,0,0,0,0,0,0,0,0,0,0,0,0,0,0,0,0,0,0,0,0,0,0,0,0,0,0,0,0,0,0,0,0,0,0,0,0,0,0,0,0,0,0,0,0,0,0,0,0,0],"sum_hessian":[2.4469848E4,1.1817163E4,1.2652685E4,4.0713132E3,7.74585E3,2.6798938E3,9.972791E3,7.621207E2,3.3091926E3,2.475658E2,7.4982847E3,2.1140903E3,5.658036E2,6.8030815E3,3.1697092E3,5.835693E2,1.785514E2,1.0025774E2,3.2089348E3,2.2175229E2,2.5813503E1,3.5381514E3,3.9601333E3,1.3026825E2,1.983822E3,1.2451112E1,5.533525E2,2.310114E2,6.5720703E3,1.9114965E3,1.2582128E3,3.735684E1,5.4621246E2,1.6837502E2,1.0176401E1,9.538728E1,4.8704505E0,2.453993E3,7.5494196E2,3.5805183E1,1.859471E2,9.435156E0,1.6378347E1,5.479821E1,3.483353E3,3.5648179E3,3.9531534E2,5.679289E0,1.2458896E2,2.173312E2,1.7664908E3,5.343701E0,7.107411E0,5.3138007E2,2.1972414E1,2.1421582E2,1.6795578E1,4.3032666E2,6.1417437E3,1.9048143E3,6.682169E0,1.055531E3,2.0268182E2,7.44564E0,2.9911198E1,5.214038E2,2.4808666E1,1.6205328E2,6.3217206E0,5.067538E0,5.1088634E0,8.821758E1,7.1697063E0,3.0772681E0,1.7931823E0,1.9439047E3,5.1008832E2,4.3240204E1,7.117018E2,2.666924E1,9.135942E0,1.5391737E2,3.2029728E1,1.388736E0,8.04642E0,5.756522E0,1.0621824E1,1.2142191E1,4.2656017E1,3.4722585E3,1.1094539E1,3.2255557E3,3.3926215E2,1.839994E2,2.1131595E2,3.5132997E0,2.1659892E0,4.080448E0,1.2050851E2,2.3362644E1,1.9396857E2,1.5447179E3,2.2177293E2,3.284168E0,2.059533E0,5.2312136E0,1.8761972E0,1.9269846E2,3.386816E2,9.028362E0,1.2944052E1,1.7755095E2,3.6664875E1,1.2305687E1,4.48989E0,1.5324184E2,2.770848E2,1.0385015E3,5.103242E3,1.6257582E3,2.7905618E2,5.485171E0,1.1969979E0,5.9500464E2,4.605263E2,1.9026385E2,1.2417967E1],"tree_param":{"num_deleted":"0","num_feature":"152","num_nodes":"127","size_leaf_vector":"1"}},{"base_weights":[-2.1916013E-3,-2.9965222E-1,1.7658861E-1,-5.569494E-1,-2.0960073E-1,7.095104E-2,4.341379E-1,-8.3077586E-1,-4.8078617E-1,-4.6995544E-1,-1.6452387E-1,1.8592417E-2,2.5780645E-1,3.6935592E-1,7.4772274E-1,-7.4016875E-1,-1.0326008E0,-2.907474E-1,-5.497265E-1,-3.6800003E-1,-7.595266E-1,-4.619943E-2,-2.5411174E-1,-1.6679837E-1,6.6594E-2,-9.1270186E-2,2.996364E-1,4.008158E-1,3.432798E-2,8.589282E-1,4.7301352E-1,-8.2620686E-1,-5.014708E-1,-3.5607174E-1,-1.0818175E0,-3.97909E-1,-6.207613E-2,-5.075807E-1,-7.830562E-1,-2.2810645E-1,-5.386216E-1,-5.897269E-1,-9.839709E-1,-8.5439846E-2,3.0772468E-1,-2.4179459E-2,-3.0477366E-1,-7.4296683E-1,-1.2746681E-1,2.0762847E-1,6.8098814E-3,-8.2375854E-1,4.865877E-3,5.1769876E-1,2.3624654E-1,3.5339454E-1,6.0687804E-1,2.9363817E-1,-1.8721475E-1,8.7072676E-1,-4.7971186E-1,3.1859405E-2,6.8005955E-1,-8.5359685E-2,2.7471493E-4,-6.510894E-2,-1.6813142E-3,3.65878E-2,-1.0769522E-1,-1.09983064E-1,2.3794023E-2,-4.275617E-2,6.0234904E-2,2.5288275E-2,-3.3249285E-2,-5.3774018E-2,-8.658501E-3,-1.0776266E-1,-6.84937E-2,-3.1411666E-2,2.27257E-2,-4.513807E-4,-6.007796E-2,5.908757E-2,-6.334304E-2,-1.0128557E-1,4.36116E-2,-1.5850881E-2,9.971664E-3,5.940134E-2,8.882192E-3,2.9957846E-2,-1.1509012E-2,-3.7082452E-2,-1.4482063E-2,-8.455609E-2,1.5796376E-2,1.5564476E-2,-2.1776706E-2,7.4809395E-2,1.8776534E-2,-4.219016E-2,2.182239E-3,-3.04609E-4,-1.1590431E-1,1.7865906E-2,-3.764766E-2,5.2884977E-2,-7.792307E-2,2.7643446E-2,-1.2556826E-2,4.5054827E-2,2.7332088E-2,6.368836E-2,-1.1984377E-2,-4.346608E-2,4.132553E-2,-3.3225007E-2,2.9161517E-2,5.606292E-2,9.074833E-2,-1.2563133E-1,6.106134E-2,-3.270193E-2,3.2678153E-2,-1.990535E-2,7.332458E-2],"categories":[],"categories_nodes":[],"categories_segments":[],"categories_sizes":[],"default_left":[0,0,0,0,0,0,0,0,0,0,0,0,0,0,0,0,0,0,0,0,0,0,0,0,0,0,0,0,0,0,0,0,0,0,0,0,0,0,0,0,0,0,0,0,0,0,0,0,0,0,0,0,0,0,0,0,0,0,0,0,0,0,0,0,0,0,0,0,0,0,0,0,0,0,0,0,0,0,0,0,0,0,0,0,0,0,0,0,0,0,0,0,0,0,0,0,0,0,0,0,0,0,0,0,0,0,0,0,0,0,0,0,0,0,0,0,0,0,0,0,0,0,0,0,0,0,0],"id":11,"left_children":[1,3,5,7,9,11,13,15,17,19,21,23,25,27,29,31,33,35,37,39,41,43,45,47,49,51,53,55,57,59,61,63,65,67,69,71,73,75,77,79,81,83,85,87,89,91,93,95,97,99,101,103,105,107,109,111,113,115,117,119,121,123,125,-1,-1,-1,-1,-1,-1,-1,-1,-1,-1,-1,-1,-1,-1,-1,-1,-1,-1,-1,-1,-1,-1,-1,-1,-1,-1,-1,-1,-1,-1,-1,-1,-1,-1,-1,-1,-1,-1,-1,-1,-1,-1,-1,-1,-1,-1,-1,-1,-1,-1,-1,-1,-1,-1,-1,-1,-1,-1,-1,-1,-1,-1,-1,-1],"loss_changes":[1.2893564E3,2.1076685E2,4.1197745E2,4.879901E1,7.906497E1,1.0507024E2,8.9199585E1,8.598297E0,2.405185E1,2.908751E1,6.093927E1,7.467734E1,3.4351593E1,3.8481903E1,2.2601501E1,6.915024E0,4.812454E0,1.2082348E1,1.2927032E1,1.7483246E1,9.255539E0,3.4452106E1,3.8108307E1,3.9017467E1,5.6199028E1,1.7771065E1,2.8897156E1,3.2410828E1,1.8129232E1,8.865723E0,2.0004509E1,5.9234467E0,7.0301056E0,6.679259E0,3.7093964E0,1.0230267E1,1.3612365E1,1.4561401E1,5.2002106E0,1.6013496E1,1.1005363E1,8.084072E0,4.9398804E0,3.0215351E1,1.5465263E1,1.7454868E1,2.8273254E1,1.0308498E1,4.1368477E1,2.1161469E1,3.0143723E1,8.053013E0,1.4914674E1,7.2380295E0,2.371231E1,2.1009888E1,1.3665878E1,1.2841454E1,1.1922023E1,5.538727E0,5.2701216E0,7.6302195E0,7.1206284E0,0E0,0E0,0E0,0E0,0E0,0E0,0E0,0E0,0E0,0E0,0E0,0E0,0E0,0E0,0E0,0E0,0E0,0E0,0E0,0E0,0E0,0E0,0E0,0E0,0E0,0E0,0E0,0E0,0E0,0E0,0E0,0E0,0E0,0E0,0E0,0E0,0E0,0E0,0E0,0E0,0E0,0E0,0E0,0E0,0E0,0E0,0E0,0E0,0E0,0E0,0E0,0E0,0E0,0E0,0E0,0E0,0E0,0E0,0E0,0E0,0E0,0E0,0E0,0E0],"parents":[2147483647,0,0,1,1,2,2,3,3,4,4,5,5,6,6,7,7,8,8,9,9,10,10,11,11,12,12,13,13,14,14,15,15,16,16,17,17,18,18,19,19,20,20,21,21,22,22,23,23,24,24,25,25,26,26,27,27,28,28,29,29,30,30,31,31,32,32,33,33,34,34,35,35,36,36,37,37,38,38,39,39,40,40,41,41,42,42,43,43,44,44,45,45,46,46,47,47,48,48,49,49,50,50,51,51,52,52,53,53,54,54,55,55,56,56,57,57,58,58,59,59,60,60,61,61,62,62],"right_children":[2,4,6,8,10,12,14,16,18,20,22,24,26,28,30,32,34,36,38,40,42,44,46,48,50,52,54,56,58,60,62,64,66,68,70,72,74,76,78,80,82,84,86,88,90,92,94,96,98,100,102,104,106,108,110,112,114,116,118,120,122,124,126,-1,-1,-1,-1,-1,-1,-1,-1,-1,-1,-1,-1,-1,-1,-1,-1,-1,-1,-1,-1,-1,-1,-1,-1,-1,-1,-1,-1,-1,-1,-1,-1,-1,-1,-1,-1,-1,-1,-1,-1,-1,-1,-1,-1,-1,-1,-1,-1,-1,-1,-1,-1,-1,-1,-1,-1,-1,-1,-1,-1,-1,-1,-1,-1],"split_conditions":[-4.872549E1,-1.9670978E2,1.2740278E2,-3.665813E2,5E0,5.5E1,3.1328845E2,5E0,-3.9E0,6.2E0,-5E-1,1.1E1,-4.303542E1,8.4E0,2.2E2,3.5983362E0,1.7338524E3,8.775579E0,5.47493E1,1.4981201E3,5.2895256E1,1.3552559E1,4.8321007E1,-2.71E2,-2.6E0,6.4951035E1,-3.7E0,5E0,3.2323232E0,6.8028574E0,2.41E1,5.43177E1,5E0,7.513055E1,6.994831E0,1.0458649E1,6.1878525E1,1.2892554E1,5.172414E0,5.148812E1,6.432112E1,4.848156E1,8.1186264E1,2.47E2,3.41337E0,1.5001528E3,7.289359E1,5.514905E1,2.16E1,1.94E1,-1.24868546E2,6.576653E1,5.129565E1,6.9079025E1,1.0835766E1,2.6760563E-1,8.2E1,2.61E2,5.3620434E1,1.8053978E3,6.119389E1,3.0398488E0,2.43E2,-8.5359685E-2,2.7471493E-4,-6.510894E-2,-1.6813142E-3,3.65878E-2,-1.0769522E-1,-1.09983064E-1,2.3794023E-2,-4.275617E-2,6.0234904E-2,2.5288275E-2,-3.3249285E-2,-5.3774018E-2,-8.658501E-3,-1.0776266E-1,-6.84937E-2,-3.1411666E-2,2.27257E-2,-4.513807E-4,-6.007796E-2,5.908757E-2,-6.334304E-2,-1.0128557E-1,4.36116E-2,-1.5850881E-2,9.971664E-3,5.940134E-2,8.882192E-3,2.9957846E-2,-1.1509012E-2,-3.7082452E-2,-1.4482063E-2,-8.455609E-2,1.5796376E-2,1.5564476E-2,-2.1776706E-2,7.4809395E-2,1.8776534E-2,-4.219016E-2,2.182239E-3,-3.04609E-4,-1.1590431E-1,1.7865906E-2,-3.764766E-2,5.2884977E-2,-7.792307E-2,2.7643446E-2,-1.2556826E-2,4.5054827E-2,2.7332088E-2,6.368836E-2,-1.1984377E-2,-4.346608E-2,4.132553E-2,-3.3225007E-2,2.9161517E-2,5.606292E-2,9.074833E-2,-1.2563133E-1,6.106134E-2,-3.270193E-2,3.2678153E-2,-1.990535E-2,7.332458E-2],"split_indices":[147,150,150,147,23,15,150,8,16,18,16,23,150,16,1,52,149,37,142,148,58,150,70,15,16,79,16,8,39,63,7,141,5,44,52,61,126,73,109,129,56,42,79,1,63,149,139,45,4,4,150,56,70,45,134,18,9,21,141,145,42,111,1,0,0,0,0,0,0,0,0,0,0,0,0,0,0,0,0,0,0,0,0,0,0,0,0,0,0,0,0,0,0,0,0,0,0,0,0,0,0,0,0,0,0,0,0,0,0,0,0,0,0,0,0,0,0,0,0,0,0,0,0,0,0,0,0],"split_type":[0,0,0,0,0,0,0,0,0,0,0,0,0,0,0,0,0,0,0,0,0,0,0,0,0,0,0,0,0,0,0,0,0,0,0,0,0,0,0,0,0,0,0,0,0,0,0,0,0,0,0,0,0,0,0,0,0,0,0,0,0,0,0,0,0,0,0,0,0,0,0,0,0,0,0,0,0,0,0,0,0,0,0,0,0,0,0,0,0,0,0,0,0,0,0,0,0,0,0,0,0,0,0,0,0,0,0,0,0,0,0,0,0,0,0,0,0,0,0,0,0,0,0,0,0,0,0],"sum_hessian":[2.4243111E4,9.10058E3,1.5142531E4,2.3580164E3,6.7425635E3,1.0739035E4,4.4034956E3,5.1098492E2,1.8470314E3,9.9370447E2,5.748859E3,8.389359E3,2.3496765E3,3.6513572E3,7.5213855E2,3.5588257E2,1.5510234E2,4.930691E2,1.3539623E3,7.3661847E2,2.5708597E2,2.477794E3,3.2710652E3,1.7249224E3,6.6644365E3,2.513065E2,2.0983699E3,3.3377393E3,3.1361783E2,5.338879E2,2.1825064E2,2.5978302E2,9.609954E1,1.1076766E1,1.4402557E2,3.3523077E2,1.5783832E2,1.1495055E3,2.0445686E2,4.0604053E2,3.3057797E2,1.4842494E2,1.08661026E2,2.2311765E3,2.4661732E2,5.90865E2,2.6802002E3,1.0908245E2,1.6158398E3,1.9832806E3,4.6811562E3,2.8278187E1,2.2302832E2,4.7098947E2,1.6273805E3,2.7155276E3,6.2221155E2,1.4434279E2,1.6927504E2,5.295699E2,4.317991E0,7.00815E1,1.4816914E2,2.5144513E2,8.337894E0,7.316836E1,2.2931185E1,5.7803245E0,5.2964416E0,1.4225066E2,1.7749174E0,3.26135E2,9.095742E0,7.294403E1,8.4894295E1,1.072403E3,7.710251E1,4.8592167E1,1.558647E2,3.417921E2,6.424839E1,3.457306E1,2.960049E2,4.851331E0,1.4357361E2,1.06775955E2,1.8850709E0,1.5999332E3,6.312434E2,1.06118385E2,1.4049893E2,1.2903622E2,4.618288E2,1.8959644E3,7.842358E2,9.7985725E1,1.10967245E1,3.9057523E2,1.2252646E3,6.900588E1,1.9142748E3,1.5746051E2,4.523696E3,8.49446E0,1.9783728E1,1.535712E2,6.945711E1,4.675616E2,3.4278667E0,1.4649049E3,1.624756E2,1.2248206E3,1.4907072E3,5.976585E2,2.4553053E1,1.9991154E1,1.2435164E2,1.3015717E2,3.911787E1,5.784152E1,4.7172836E2,2.4328892E0,1.8851013E0,3.1563875E1,3.8517624E1,8.296372E0,1.3987277E2],"tree_param":{"num_deleted":"0","num_feature":"152","num_nodes":"127","size_leaf_vector":"1"}},{"base_weights":[-1.5419626E-3,-1.6917582E-1,2.7724096E-1,-3.9369315E-1,-5.4930147E-2,5.3786653E-1,2.002341E-1,-2.9310113E-1,-5.914838E-1,-3.8315254E-1,-2.7058778E-2,4.6517318E-1,7.996027E-1,1.6411036E-1,4.0787485E-1,-6.0446333E-2,-3.5022312E-1,-8.4442115E-1,-5.22318E-1,-2.083771E-1,-5.6817544E-1,1.813997E-2,-1.991125E-1,7.1579874E-1,3.9469966E-1,6.869017E-1,1.0824258E0,2.4831545E-1,8.22026E-2,5.4790664E-1,2.7486098E-1,-2.518443E-1,6.915198E-2,-2.5462666E-1,-4.932227E-1,-8.754976E-1,-2.379803E-1,-7.9362965E-1,-4.7364062E-1,-5.7899004E-1,-9.1493756E-2,-3.4751844E-1,-7.581894E-1,1.6386245E-1,-2.9205563E-2,3.831146E-1,-2.2403997E-1,8.509424E-1,5.292039E-1,4.9016017E-1,2.706397E-1,